{"learner":{"attributes":{},"feature_names":["day_of_week","hour_of_day"],"feature_types":[],"gradient_booster":{"model":{"cats":{"enc":[],"feature_segments":[],"sorted_idx":[]},"gbtree_model_param":{"num_parallel_tree":"1","num_trees":"50"},"iteration_indptr":[0,1,2,3,4,5,6,7,8,9,10,11,12,13,14,15,16,17,18,19,20,21,22,23,24,25,26,27,28,29,30,31,32,33,34,35,36,37,38,39,40,41,42,43,44,45,46,47,48,49,50],"tree_info":[0,0,0,0,0,0,0,0,0,0,0,0,0,0,0,0,0,0,0,0,0,0,0,0,0,0,0,0,0,0,0,0,0,0,0,0,0,0,0,0,0,0,0,0,0,0,0,0,0,0],"trees":[{"base_weights":[4.4180013E-7,-1.0636059E1,1.7603918E0,-1.1194267E1,-6.1341233E0,3.663895E0,-5.6633644E0,-1.2022022E0,-9.691092E-1,-3.6793837E-1,-8.535618E-1,-1.1191298E0,4.3030214E0,-3.6146529E0,-8.201155E0,1.9240336E-1,-8.0040616E-1,4.6976876E-1,-4.5049053E-2,-4.3499088E-1,-1.223248E-1,-1.0153807E0,-4.1322494E-1],"categories":[],"categories_nodes":[],"categories_segments":[],"categories_sizes":[],"default_left":[0,0,0,0,0,0,0,0,0,0,0,0,0,0,0,0,0,0,0,0,0,0,0],"id":0,"left_children":[1,3,5,7,9,11,13,-1,-1,-1,-1,15,17,19,21,-1,-1,-1,-1,-1,-1,-1,-1],"loss_changes":[5.353085E4,9.516172E2,3.4684445E4,3.314297E2,2.4566125E2,5.9750527E3,2.5751543E3,0E0,0E0,0E0,0E0,4.8553057E3,3.2345508E3,4.8524292E2,1.7298125E3,0E0,0E0,0E0,0E0,0E0,0E0,0E0,0E0],"parents":[2147483647,0,0,1,1,2,2,3,3,4,4,5,5,6,6,11,11,12,12,13,13,14,14],"right_children":[2,4,6,8,10,12,14,-1,-1,-1,-1,16,18,20,22,-1,-1,-1,-1,-1,-1,-1,-1],"split_conditions":[4E0,3E0,2E1,5E0,2E0,6E0,2.2E1,-1.2022022E0,-9.691092E-1,-3.6793837E-1,-8.535618E-1,5E0,1.9E1,4E0,4E0,1.9240336E-1,-8.0040616E-1,4.6976876E-1,-4.5049053E-2,-4.3499088E-1,-1.223248E-1,-1.0153807E0,-4.1322494E-1],"split_indices":[1,1,1,0,0,1,1,0,0,0,0,0,1,0,0,0,0,0,0,0,0,0,0],"split_type":[0,0,0,0,0,0,0,0,0,0,0,0,0,0,0,0,0,0,0,0,0,0,0],"sum_hessian":[2.857E3,4.05E2,2.452E3,3.59E2,4.6E1,1.952E3,5E2,2.27E2,1.32E2,2.4E1,2.2E1,2.3E2,1.722E3,2.78E2,2.22E2,1.6E2,7E1,1.59E3,1.32E2,2.12E2,6.6E1,1.49E2,7.3E1],"tree_param":{"num_deleted":"0","num_feature":"2","num_nodes":"23","size_leaf_vector":"1"}},{"base_weights":[-1.9456184E-3,-9.58081E0,1.5834684E0,-1.0080872E1,-5.5467005E0,3.2974117E0,-5.1009917E0,-1.0825093E0,-8.729269E-1,-3.326163E-1,-7.719168E-1,-1.0098491E0,3.8729658E0,-3.2551851E0,-7.387445E0,1.7328249E-1,-7.214929E-1,4.4131175E-1,9.8786384E-2,-3.91696E-1,-1.1027487E-1,-9.145195E-1,-3.7246084E-1],"categories":[],"categories_nodes":[],"categories_segments":[],"categories_sizes":[],"default_left":[0,0,0,0,0,0,0,0,0,0,0,0,0,0,0,0,0,0,0,0,0,0,0],"id":1,"left_children":[1,3,5,7,9,11,13,-1,-1,-1,-1,15,17,19,21,-1,-1,-1,-1,-1,-1,-1,-1],"loss_changes":[4.341809E4,7.631094E2,2.8120314E4,2.676289E2,2.0105493E2,4.8455176E3,2.0903467E3,0E0,0E0,0E0,0E0,3.9437778E3,2.680752E3,3.9309595E2,1.4016904E3,0E0,0E0,0E0,0E0,0E0,0E0,0E0,0E0],"parents":[2147483647,0,0,1,1,2,2,3,3,4,4,5,5,6,6,11,11,12,12,13,13,14,14],"right_children":[2,4,6,8,10,12,14,-1,-1,-1,-1,16,18,20,22,-1,-1,-1,-1,-1,-1,-1,-1],"split_conditions":[4E0,3E0,2E1,5E0,2E0,6E0,2.2E1,-1.0825093E0,-8.729269E-1,-3.326163E-1,-7.719168E-1,5E0,1.8E1,4E0,4E0,1.7328249E-1,-7.214929E-1,4.4131175E-1,9.8786384E-2,-3.91696E-1,-1.1027487E-1,-9.145195E-1,-3.7246084E-1],"split_indices":[1,1,1,0,0,1,1,0,0,0,0,0,1,0,0,0,0,0,0,0,0,0,0],"split_type":[0,0,0,0,0,0,0,0,0,0,0,0,0,0,0,0,0,0,0,0,0,0,0],"sum_hessian":[2.857E3,4.05E2,2.452E3,3.59E2,4.6E1,1.952E3,5E2,2.27E2,1.32E2,2.4E1,2.2E1,2.3E2,1.722E3,2.78E2,2.22E2,1.6E2,7E1,1.45E3,2.72E2,2.12E2,6.6E1,1.49E2,7.3E1],"tree_param":{"num_deleted":"0","num_feature":"2","num_nodes":"23","size_leaf_vector":"1"}},{"base_weights":[-3.4504924E-3,-8.630266E0,1.4243891E0,-9.078217E0,-5.0155315E0,2.9676664E0,-4.5944633E0,-9.747332E-1,-7.862906E-1,-3.006852E-1,-6.980813E-1,-9.112375E-1,3.485983E0,-2.9314656E0,-6.654472E0,1.5606186E-1,-6.503598E-1,3.8173208E-1,-5.0382413E-2,-4.990762E-1,-2.2826572E-1,-8.2367724E-1,-3.3571804E-1],"categories":[],"categories_nodes":[],"categories_segments":[],"categories_sizes":[],"default_left":[0,0,0,0,0,0,0,0,0,0,0,0,0,0,0,0,0,0,0,0,0,0,0],"id":2,"left_children":[1,3,5,7,9,11,13,-1,-1,-1,-1,15,17,19,21,-1,-1,-1,-1,-1,-1,-1,-1],"loss_changes":[3.52163E4,6.1187305E2,2.2798959E4,2.1610156E2,1.6454785E2,3.9296816E3,1.6968135E3,0E0,0E0,0E0,0E0,3.2033801E3,2.2796816E3,3.6137646E2,1.1358066E3,0E0,0E0,0E0,0E0,0E0,0E0,0E0,0E0],"parents":[2147483647,0,0,1,1,2,2,3,3,4,4,5,5,6,6,11,11,12,12,13,13,14,14],"right_children":[2,4,6,8,10,12,14,-1,-1,-1,-1,16,18,20,22,-1,-1,-1,-1,-1,-1,-1,-1],"split_conditions":[4E0,3E0,2E1,5E0,2E0,6E0,2.2E1,-9.747332E-1,-7.862906E-1,-3.006852E-1,-6.980813E-1,5E0,1.9E1,2E0,4E0,1.5606186E-1,-6.503598E-1,3.8173208E-1,-5.0382413E-2,-4.990762E-1,-2.2826572E-1,-8.2367724E-1,-3.3571804E-1],"split_indices":[1,1,1,0,0,1,1,0,0,0,0,0,1,0,0,0,0,0,0,0,0,0,0],"split_type":[0,0,0,0,0,0,0,0,0,0,0,0,0,0,0,0,0,0,0,0,0,0,0],"sum_hessian":[2.857E3,4.05E2,2.452E3,3.59E2,4.6E1,1.952E3,5E2,2.27E2,1.32E2,2.4E1,2.2E1,2.3E2,1.722E3,2.78E2,2.22E2,1.6E2,7E1,1.59E3,1.32E2,6.5E1,2.13E2,1.49E2,7.3E1],"tree_param":{"num_deleted":"0","num_feature":"2","num_nodes":"23","size_leaf_vector":"1"}},{"base_weights":[-4.7883103E-3,-7.774037E0,1.2811146E0,-8.175286E0,-4.535229E0,2.6708164E0,-4.138783E0,-8.776873E-1,-7.082528E-1,-2.7181944E-1,-6.313083E-1,3.349631E0,1.23721026E-1,-2.6409261E0,-5.9942236E0,3.9126822E-1,7.180402E-2,-4.5821652E-1,1.7896621E-1,-3.2172674E-1,-7.6926075E-2,-7.4185866E-1,-3.0259988E-1],"categories":[],"categories_nodes":[],"categories_segments":[],"categories_sizes":[],"default_left":[0,0,0,0,0,0,0,0,0,0,0,0,0,0,0,0,0,0,0,0,0,0,0],"id":3,"left_children":[1,3,5,7,9,11,13,-1,-1,-1,-1,15,17,19,21,-1,-1,-1,-1,-1,-1,-1,-1],"loss_changes":[2.8562805E4,4.9055078E2,1.8487152E4,1.744961E2,1.3466962E2,3.376333E3,1.376541E3,0E0,0E0,0E0,0E0,2.282004E3,3.2381692E3,2.984873E2,9.203579E2,0E0,0E0,0E0,0E0,0E0,0E0,0E0,0E0],"parents":[2147483647,0,0,1,1,2,2,3,3,4,4,5,5,6,6,11,11,12,12,13,13,14,14],"right_children":[2,4,6,8,10,12,14,-1,-1,-1,-1,16,18,20,22,-1,-1,-1,-1,-1,-1,-1,-1],"split_conditions":[4E0,3E0,2E1,5E0,2E0,5E0,2.2E1,-8.776873E-1,-7.082528E-1,-2.7181944E-1,-6.313083E-1,1.8E1,9E0,4E0,4E0,3.9126822E-1,7.180402E-2,-4.5821652E-1,1.7896621E-1,-3.2172674E-1,-7.6926075E-2,-7.4185866E-1,-3.0259988E-1],"split_indices":[1,1,1,0,0,0,1,0,0,0,0,1,1,0,0,0,0,0,0,0,0,0,0],"split_type":[0,0,0,0,0,0,0,0,0,0,0,0,0,0,0,0,0,0,0,0,0,0,0],"sum_hessian":[2.857E3,4.05E2,2.452E3,3.59E2,4.6E1,1.952E3,5E2,2.27E2,1.32E2,2.4E1,2.2E1,1.541E3,4.11E2,2.78E2,2.22E2,1.269E3,2.72E2,1.07E2,3.04E2,2.12E2,6.6E1,1.49E2,7.3E1],"tree_param":{"num_deleted":"0","num_feature":"2","num_nodes":"23","size_leaf_vector":"1"}},{"base_weights":[-5.6208377E-3,-7.0027637E0,1.1524899E0,-7.362163E0,-4.1009216E0,2.6164274E0,-3.0607529E0,-7.903035E-1,-6.3795996E-1,-2.457248E-1,-5.709223E-1,-9.5440817E-1,3.1332386E0,-1.7843586E0,-5.399485E0,1.0166881E-1,-5.410635E-1,3.6441848E-1,1.2565833E-1,-1.0070788E-1,-3.1021774E-1,-6.681674E-1,-2.7274883E-1],"categories":[],"categories_nodes":[],"categories_segments":[],"categories_sizes":[],"default_left":[0,0,0,0,0,0,0,0,0,0,0,0,0,0,0,0,0,0,0,0,0,0,0],"id":4,"left_children":[1,3,5,7,9,11,13,-1,-1,-1,-1,15,17,19,21,-1,-1,-1,-1,-1,-1,-1,-1],"loss_changes":[2.316778E4,3.9323438E2,1.5137927E4,1.4090039E2,1.1021649E2,3.3635518E3,1.8799619E3,0E0,0E0,0E0,0E0,2.0345244E3,1.5209805E3,4.178689E2,7.457744E2,0E0,0E0,0E0,0E0,0E0,0E0,0E0,0E0],"parents":[2147483647,0,0,1,1,2,2,3,3,4,4,5,5,6,6,11,11,12,12,13,13,14,14],"right_children":[2,4,6,8,10,12,14,-1,-1,-1,-1,16,18,20,22,-1,-1,-1,-1,-1,-1,-1,-1],"split_conditions":[4E0,3E0,1.9E1,5E0,2E0,6E0,2.2E1,-7.903035E-1,-6.3795996E-1,-2.457248E-1,-5.709223E-1,5E0,5E0,2.1E1,4E0,1.0166881E-1,-5.410635E-1,3.6441848E-1,1.2565833E-1,-1.0070788E-1,-3.1021774E-1,-6.681674E-1,-2.7274883E-1],"split_indices":[1,1,1,0,0,1,1,0,0,0,0,0,0,1,0,0,0,0,0,0,0,0,0],"split_type":[0,0,0,0,0,0,0,0,0,0,0,0,0,0,0,0,0,0,0,0,0,0,0],"sum_hessian":[2.857E3,4.05E2,2.452E3,3.59E2,4.6E1,1.82E3,6.32E2,2.27E2,1.32E2,2.4E1,2.2E1,2.3E2,1.59E3,4.1E2,2.22E2,1.6E2,7E1,1.249E3,3.41E2,2.59E2,1.51E2,1.49E2,7.3E1],"tree_param":{"num_deleted":"0","num_feature":"2","num_nodes":"23","size_leaf_vector":"1"}},{"base_weights":[-6.2992787E-3,-6.3080173E0,1.0367109E0,-6.6299148E0,-3.7082052E0,2.3548129E0,-2.7568133E0,-7.116198E-1,-5.7464373E-1,-2.2213522E-1,-5.1631236E-1,-8.608691E-1,2.820223E0,-1.6069225E0,-4.863756E0,9.156513E-2,-4.877192E-1,3.2800585E-1,1.1312927E-1,-2.2292963E-1,3.4080413E-3,-6.017961E-1,-2.458425E-1],"categories":[],"categories_nodes":[],"categories_segments":[],"categories_sizes":[],"default_left":[0,0,0,0,0,0,0,0,0,0,0,0,0,0,0,0,0,0,0,0,0,0,0],"id":5,"left_children":[1,3,5,7,9,11,13,-1,-1,-1,-1,15,17,19,21,-1,-1,-1,-1,-1,-1,-1,-1],"loss_changes":[1.8791475E4,3.1518457E2,1.227211E4,1.13771484E2,9.0203674E1,2.7277578E3,1.5257876E3,0E0,0E0,0E0,0E0,1.6526692E3,1.2319062E3,4.198374E2,6.043081E2,0E0,0E0,0E0,0E0,0E0,0E0,0E0,0E0],"parents":[2147483647,0,0,1,1,2,2,3,3,4,4,5,5,6,6,11,11,12,12,13,13,14,14],"right_children":[2,4,6,8,10,12,14,-1,-1,-1,-1,16,18,20,22,-1,-1,-1,-1,-1,-1,-1,-1],"split_conditions":[4E0,3E0,1.9E1,5E0,2E0,6E0,2.2E1,-7.116198E-1,-5.7464373E-1,-2.2213522E-1,-5.1631236E-1,5E0,5E0,4E0,4E0,9.156513E-2,-4.877192E-1,3.2800585E-1,1.1312927E-1,-2.2292963E-1,3.4080413E-3,-6.017961E-1,-2.458425E-1],"split_indices":[1,1,1,0,0,1,1,0,0,0,0,0,0,0,0,0,0,0,0,0,0,0,0],"split_type":[0,0,0,0,0,0,0,0,0,0,0,0,0,0,0,0,0,0,0,0,0,0,0],"sum_hessian":[2.857E3,4.05E2,2.452E3,3.59E2,4.6E1,1.82E3,6.32E2,2.27E2,1.32E2,2.4E1,2.2E1,2.3E2,1.59E3,4.1E2,2.22E2,1.6E2,7E1,1.249E3,3.41E2,2.97E2,1.13E2,1.49E2,7.3E1],"tree_param":{"num_deleted":"0","num_feature":"2","num_nodes":"23","size_leaf_vector":"1"}},{"base_weights":[-6.735849E-3,-5.6822023E0,9.3262255E-1,-5.970496E0,-3.3530962E0,1.9567807E0,-3.061616E0,-6.4077E-1,-5.176114E-1,-2.0081022E-1,-4.6692595E-1,-7.764971E-1,2.3220916E0,-1.995936E0,-4.3811812E0,8.2465485E-2,-4.3963417E-1,2.6804456E-1,4.0892757E-2,-3.7239882E-1,-1.4536588E-1,-5.420177E-1,-2.2159043E-1],"categories":[],"categories_nodes":[],"categories_segments":[],"categories_sizes":[],"default_left":[0,0,0,0,0,0,0,0,0,0,0,0,0,0,0,0,0,0,0,0,0,0,0],"id":6,"left_children":[1,3,5,7,9,11,13,-1,-1,-1,-1,15,17,19,21,-1,-1,-1,-1,-1,-1,-1,-1],"loss_changes":[1.5242146E4,2.525957E2,1.0040557E4,9.186328E1,7.3824524E1,1.9518657E3,6.957788E2,0E0,0E0,0E0,0E0,1.3424832E3,1.1801758E3,2.5603284E2,4.896753E2,0E0,0E0,0E0,0E0,0E0,0E0,0E0,0E0],"parents":[2147483647,0,0,1,1,2,2,3,3,4,4,5,5,6,6,11,11,12,12,13,13,14,14],"right_children":[2,4,6,8,10,12,14,-1,-1,-1,-1,16,18,20,22,-1,-1,-1,-1,-1,-1,-1,-1],"split_conditions":[4E0,3E0,2E1,5E0,2E0,6E0,2.2E1,-6.4077E-1,-5.176114E-1,-2.0081022E-1,-4.6692595E-1,5E0,1.8E1,2E0,4E0,8.2465485E-2,-4.3963417E-1,2.6804456E-1,4.0892757E-2,-3.7239882E-1,-1.4536588E-1,-5.420177E-1,-2.2159043E-1],"split_indices":[1,1,1,0,0,1,1,0,0,0,0,0,1,0,0,0,0,0,0,0,0,0,0],"split_type":[0,0,0,0,0,0,0,0,0,0,0,0,0,0,0,0,0,0,0,0,0,0,0],"sum_hessian":[2.857E3,4.05E2,2.452E3,3.59E2,4.6E1,1.952E3,5E2,2.27E2,1.32E2,2.4E1,2.2E1,2.3E2,1.722E3,2.78E2,2.22E2,1.6E2,7E1,1.45E3,2.72E2,6.5E1,2.13E2,1.49E2,7.3E1],"tree_param":{"num_deleted":"0","num_feature":"2","num_nodes":"23","size_leaf_vector":"1"}},{"base_weights":[-7.1667125E-3,-5.11848E0,8.3881795E-1,-5.376664E0,-3.0319936E0,1.7610775E0,-2.758012E0,-5.7697403E-1,-4.6623936E-1,-1.8153241E-1,-4.2226347E-1,2.2463222E0,-5.933041E-2,-1.7981985E0,-3.9464874E0,2.648279E-1,3.6818482E-2,-3.3500764E-1,1.1061119E-1,-3.3572322E-1,-1.3089722E-1,-4.8817727E-1,-1.9973087E-1],"categories":[],"categories_nodes":[],"categories_segments":[],"categories_sizes":[],"default_left":[0,0,0,0,0,0,0,0,0,0,0,0,0,0,0,0,0,0,0,0,0,0,0],"id":7,"left_children":[1,3,5,7,9,11,13,-1,-1,-1,-1,15,17,19,21,-1,-1,-1,-1,-1,-1,-1,-1],"loss_changes":[1.236255E4,2.0241016E2,8.1419766E3,7.417383E1,6.0419525E1,1.7253022E3,5.644016E2,0E0,0E0,0E0,0E0,1.163127E3,1.5837975E3,2.0840436E2,3.9678687E2,0E0,0E0,0E0,0E0,0E0,0E0,0E0,0E0],"parents":[2147483647,0,0,1,1,2,2,3,3,4,4,5,5,6,6,11,11,12,12,13,13,14,14],"right_children":[2,4,6,8,10,12,14,-1,-1,-1,-1,16,18,20,22,-1,-1,-1,-1,-1,-1,-1,-1],"split_conditions":[4E0,3E0,2E1,5E0,2E0,5E0,2.2E1,-5.7697403E-1,-4.6623936E-1,-1.8153241E-1,-4.2226347E-1,1.8E1,9E0,2E0,4E0,2.648279E-1,3.6818482E-2,-3.3500764E-1,1.1061119E-1,-3.3572322E-1,-1.3089722E-1,-4.8817727E-1,-1.9973087E-1],"split_indices":[1,1,1,0,0,0,1,0,0,0,0,1,1,0,0,0,0,0,0,0,0,0,0],"split_type":[0,0,0,0,0,0,0,0,0,0,0,0,0,0,0,0,0,0,0,0,0,0,0],"sum_hessian":[2.857E3,4.05E2,2.452E3,3.59E2,4.6E1,1.952E3,5E2,2.27E2,1.32E2,2.4E1,2.2E1,1.541E3,4.11E2,2.78E2,2.22E2,1.269E3,2.72E2,1.07E2,3.04E2,6.5E1,2.13E2,1.49E2,7.3E1],"tree_param":{"num_deleted":"0","num_feature":"2","num_nodes":"23","size_leaf_vector":"1"}},{"base_weights":[-7.4031623E-3,-4.6106887E0,7.544971E-1,-4.841896E0,-2.741641E0,1.7262688E0,-2.0422654E0,-5.195297E0,-4.1996603E0,-1.6410527E-1,-3.818731E-1,2.2452195E0,-5.3941846E-2,-6.1263967E-1,-3.030662E0,-5.434113E-1,-4.6248674E-1,-3.3301076E-1,-4.3420035E-1,1.6225667E-1,2.9833087E-1,-3.018171E-1,9.958636E-2,-9.9539526E-2,4.8272014E-2,-3.8647184E-1,-1.2330375E-1],"categories":[],"categories_nodes":[],"categories_segments":[],"categories_sizes":[],"default_left":[0,0,0,0,0,0,0,0,0,0,0,0,0,0,0,0,0,0,0,0,0,0,0,0,0,0,0],"id":8,"left_children":[1,3,5,7,9,11,13,15,17,-1,-1,19,21,23,25,-1,-1,-1,-1,-1,-1,-1,-1,-1,-1,-1,-1],"loss_changes":[1.0027185E4,1.6217285E2,6.670324E3,5.988965E1,4.9448578E1,1.6824365E3,8.925962E2,5.9277344E0,2.0024414E0,0E0,0E0,6.431582E2,1.2850935E3,1.0948683E2,5.559802E2,0E0,0E0,0E0,0E0,0E0,0E0,0E0,0E0,0E0,0E0,0E0,0E0],"parents":[2147483647,0,0,1,1,2,2,3,3,4,4,5,5,6,6,7,7,8,8,11,11,12,12,13,13,14,14],"right_children":[2,4,6,8,10,12,14,16,18,-1,-1,20,22,24,26,-1,-1,-1,-1,-1,-1,-1,-1,-1,-1,-1,-1],"split_conditions":[4E0,3E0,1.9E1,5E0,2E0,5E0,2.1E1,2E0,1E0,-1.6410527E-1,-3.818731E-1,1.3E1,9E0,4E0,4E0,-5.434113E-1,-4.6248674E-1,-3.3301076E-1,-4.3420035E-1,1.6225667E-1,2.9833087E-1,-3.018171E-1,9.958636E-2,-9.9539526E-2,4.8272014E-2,-3.8647184E-1,-1.2330375E-1],"split_indices":[1,1,1,0,0,0,1,1,1,0,0,1,1,0,0,0,0,0,0,0,0,0,0,0,0,0,0],"split_type":[0,0,0,0,0,0,0,0,0,0,0,0,0,0,0,0,0,0,0,0,0,0,0,0,0,0,0],"sum_hessian":[2.857E3,4.05E2,2.452E3,3.59E2,4.6E1,1.82E3,6.32E2,2.27E2,1.32E2,2.4E1,2.2E1,1.409E3,4.11E2,2.59E2,3.73E2,1.54E2,7.3E1,2.2E1,1.1E2,7.66E2,6.43E2,1.07E2,3.04E2,1.92E2,6.7E1,2.54E2,1.19E2],"tree_param":{"num_deleted":"0","num_feature":"2","num_nodes":"27","size_leaf_vector":"1"}},{"base_weights":[-7.5800363E-3,-4.155332E0,6.789242E-1,-4.362632E0,-2.4790933E0,1.553784E0,-1.8389251E0,-4.680179E0,-3.7854629E0,-1.4835113E-1,-3.453461E-1,-8.032319E-1,1.8950266E0,-5.515728E-1,-2.728959E0,-4.8942074E-1,-4.1686305E-1,-3.0115756E-1,-3.911715E-1,3.1827066E-2,-3.335044E-1,2.2387223E-1,6.332872E-2,-8.963713E-2,4.3515787E-2,-3.4797618E-1,-1.1107617E-1],"categories":[],"categories_nodes":[],"categories_segments":[],"categories_sizes":[],"default_left":[0,0,0,0,0,0,0,0,0,0,0,0,0,0,0,0,0,0,0,0,0,0,0,0,0,0,0],"id":9,"left_children":[1,3,5,7,9,11,13,15,17,-1,-1,19,21,23,25,-1,-1,-1,-1,-1,-1,-1,-1,-1,-1,-1,-1],"loss_changes":[8.1408315E3,1.3026318E2,5.4062407E3,4.8263184E1,4.0469696E1,1.4661782E3,7.2377783E2,4.561035E0,1.2142334E0,0E0,0E0,6.569707E2,6.8852686E2,8.884811E1,4.505254E2,0E0,0E0,0E0,0E0,0E0,0E0,0E0,0E0,0E0,0E0,0E0,0E0],"parents":[2147483647,0,0,1,1,2,2,3,3,4,4,5,5,6,6,7,7,8,8,11,11,12,12,13,13,14,14],"right_children":[2,4,6,8,10,12,14,16,18,-1,-1,20,22,24,26,-1,-1,-1,-1,-1,-1,-1,-1,-1,-1,-1,-1],"split_conditions":[4E0,3E0,1.9E1,5E0,2E0,6E0,2.1E1,2E0,1E0,-1.4835113E-1,-3.453461E-1,5E0,5E0,4E0,4E0,-4.8942074E-1,-4.1686305E-1,-3.0115756E-1,-3.911715E-1,3.1827066E-2,-3.335044E-1,2.2387223E-1,6.332872E-2,-8.963713E-2,4.3515787E-2,-3.4797618E-1,-1.1107617E-1],"split_indices":[1,1,1,0,0,1,1,1,1,0,0,0,0,0,0,0,0,0,0,0,0,0,0,0,0,0,0],"split_type":[0,0,0,0,0,0,0,0,0,0,0,0,0,0,0,0,0,0,0,0,0,0,0,0,0,0,0],"sum_hessian":[2.857E3,4.05E2,2.452E3,3.59E2,4.6E1,1.82E3,6.32E2,2.27E2,1.32E2,2.4E1,2.2E1,2.3E2,1.59E3,2.59E2,3.73E2,1.54E2,7.3E1,2.2E1,1.1E2,1.6E2,7E1,1.249E3,3.41E2,1.92E2,6.7E1,2.54E2,1.19E2],"tree_param":{"num_deleted":"0","num_feature":"2","num_nodes":"27","size_leaf_vector":"1"}},{"base_weights":[-7.7362596E-3,-3.7449522E0,6.108196E-1,-3.930809E0,-2.2416883E0,1.3983972E0,-1.6558309E0,-4.216136E0,-3.412122E0,-1.3410947E-1,-3.1231296E-1,-7.2421443E-1,1.7057039E0,-9.292834E-1,-2.9874685E0,-4.4079444E-1,-3.7574008E-1,-2.723512E-1,-3.524067E-1,4.0813628E-1,-1.2752223E-1,2.0150284E-1,5.7014447E-2,-2.1705149E-1,-5.0173104E-2,-4.0128097E-1,-2.0070866E-1],"categories":[],"categories_nodes":[],"categories_segments":[],"categories_sizes":[],"default_left":[0,0,0,0,0,0,0,0,0,0,0,0,0,0,0,0,0,0,0,0,0,0,0,0,0,0,0],"id":10,"left_children":[1,3,5,7,9,11,13,15,17,-1,-1,19,21,23,25,-1,-1,-1,-1,-1,-1,-1,-1,-1,-1,-1,-1],"loss_changes":[6.6090596E3,1.0462158E2,4.381321E3,3.889258E1,3.3121155E1,1.1890603E3,6.0965E2,3.4990234E0,6.5478516E-1,0E0,0E0,6.168721E2,5.576997E2,2.1702518E2,2.1611133E2,0E0,0E0,0E0,0E0,0E0,0E0,0E0,0E0,0E0,0E0,0E0,0E0],"parents":[2147483647,0,0,1,1,2,2,3,3,4,4,5,5,6,6,7,7,8,8,11,11,12,12,13,13,14,14],"right_children":[2,4,6,8,10,12,14,16,18,-1,-1,20,22,24,26,-1,-1,-1,-1,-1,-1,-1,-1,-1,-1,-1,-1],"split_conditions":[4E0,3E0,1.9E1,5E0,2E0,6E0,2.2E1,2E0,1E0,-1.3410947E-1,-3.1231296E-1,2E0,5E0,2E0,3E0,-4.4079444E-1,-3.7574008E-1,-2.723512E-1,-3.524067E-1,4.0813628E-1,-1.2752223E-1,2.0150284E-1,5.7014447E-2,-2.1705149E-1,-5.0173104E-2,-4.0128097E-1,-2.0070866E-1],"split_indices":[1,1,1,0,0,1,1,1,1,0,0,0,0,0,0,0,0,0,0,0,0,0,0,0,0,0,0],"split_type":[0,0,0,0,0,0,0,0,0,0,0,0,0,0,0,0,0,0,0,0,0,0,0,0,0,0,0],"sum_hessian":[2.857E3,4.05E2,2.452E3,3.59E2,4.6E1,1.82E3,6.32E2,2.27E2,1.32E2,2.4E1,2.2E1,2.3E2,1.59E3,4.1E2,2.22E2,1.54E2,7.3E1,2.2E1,1.1E2,2.3E1,2.07E2,1.249E3,3.41E2,1.04E2,3.06E2,1.07E2,1.15E2],"tree_param":{"num_deleted":"0","num_feature":"2","num_nodes":"27","size_leaf_vector":"1"}},{"base_weights":[-7.7390573E-3,-3.3751066E0,5.4960257E-1,-3.5417318E0,-2.0270176E0,1.1619337E0,-1.8384858E0,-3.7981038E0,-3.0756075E0,-1.2123495E-1,-2.8243956E-1,-6.505781E-1,1.40426E0,-1.1501594E0,-2.6914213E0,-3.969994E-1,-3.3867383E-1,-2.463002E-1,-3.1748357E-1,3.3684906E-2,-2.8805104E-1,1.6577962E-1,5.1566726E-3,-1.5069523E-1,1.2892396E-4,-3.3248526E-1,-1.3710684E-1],"categories":[],"categories_nodes":[],"categories_segments":[],"categories_sizes":[],"default_left":[0,0,0,0,0,0,0,0,0,0,0,0,0,0,0,0,0,0,0,0,0,0,0,0,0,0,0],"id":11,"left_children":[1,3,5,7,9,11,13,15,17,-1,-1,19,21,23,25,-1,-1,-1,-1,-1,-1,-1,-1,-1,-1,-1,-1],"loss_changes":[5.3656753E3,8.401904E1,3.5891602E3,3.1338867E1,2.7106964E1,8.58709E2,2.910404E2,2.6765137E0,2.6513672E-1,0E0,0E0,5.0960822E2,5.9082886E2,1.1462317E2,1.8194812E2,0E0,0E0,0E0,0E0,0E0,0E0,0E0,0E0,0E0,0E0,0E0,0E0],"parents":[2147483647,0,0,1,1,2,2,3,3,4,4,5,5,6,6,7,7,8,8,11,11,12,12,13,13,14,14],"right_children":[2,4,6,8,10,12,14,16,18,-1,-1,20,22,24,26,-1,-1,-1,-1,-1,-1,-1,-1,-1,-1,-1,-1],"split_conditions":[4E0,3E0,2E1,5E0,2E0,6E0,2.2E1,2E0,1E0,-1.2123495E-1,-2.8243956E-1,5E0,1.8E1,4E0,4E0,-3.969994E-1,-3.3867383E-1,-2.463002E-1,-3.1748357E-1,3.3684906E-2,-2.8805104E-1,1.6577962E-1,5.1566726E-3,-1.5069523E-1,1.2892396E-4,-3.3248526E-1,-1.3710684E-1],"split_indices":[1,1,1,0,0,1,1,1,1,0,0,0,1,0,0,0,0,0,0,0,0,0,0,0,0,0,0],"split_type":[0,0,0,0,0,0,0,0,0,0,0,0,0,0,0,0,0,0,0,0,0,0,0,0,0,0,0],"sum_hessian":[2.857E3,4.05E2,2.452E3,3.59E2,4.6E1,1.952E3,5E2,2.27E2,1.32E2,2.4E1,2.2E1,2.3E2,1.722E3,2.78E2,2.22E2,1.54E2,7.3E1,2.2E1,1.1E2,1.6E2,7E1,1.45E3,2.72E2,2.12E2,6.6E1,1.49E2,7.3E1],"tree_param":{"num_deleted":"0","num_feature":"2","num_nodes":"27","size_leaf_vector":"1"}},{"base_weights":[-7.807071E-3,-3.041791E0,4.943557E-1,-3.1911683E0,-1.8329047E0,1.0456979E0,-1.6558752E0,-3.4215202E0,-2.772286E0,-1.09596394E-1,-2.5542358E-1,1.366786E0,-1.5858236E-1,-1.0356834E0,-2.4243848E0,-3.5755557E-1,-3.0526415E-1,-2.2274105E-1,-2.8602123E-1,1.6495346E-1,4.6428614E-3,-2.3316589E-1,6.114204E-2,-2.1145971E-1,-6.980946E-2,-3.2858378E-1,-1.6014428E-1],"categories":[],"categories_nodes":[],"categories_segments":[],"categories_sizes":[],"default_left":[0,0,0,0,0,0,0,0,0,0,0,0,0,0,0,0,0,0,0,0,0,0,0,0,0,0,0],"id":12,"left_children":[1,3,5,7,9,11,13,15,17,-1,-1,19,21,23,25,-1,-1,-1,-1,-1,-1,-1,-1,-1,-1,-1,-1],"loss_changes":[4.35582E3,6.746655E1,2.9097952E3,2.525122E1,2.2184814E1,7.554026E2,2.3627747E2,2.040039E0,9.765625E-4,0E0,0E0,5.7559717E2,6.908148E2,1.0014377E2,1.5282825E2,0E0,0E0,0E0,0E0,0E0,0E0,0E0,0E0,0E0,0E0,0E0,0E0],"parents":[2147483647,0,0,1,1,2,2,3,3,4,4,5,5,6,6,7,7,8,8,11,11,12,12,13,13,14,14],"right_children":[2,4,6,8,10,12,14,16,18,-1,-1,20,22,24,26,-1,-1,-1,-1,-1,-1,-1,-1,-1,-1,-1,-1],"split_conditions":[4E0,3E0,2E1,5E0,2E0,5E0,2.2E1,2E0,1E0,-1.09596394E-1,-2.5542358E-1,1.8E1,9E0,2E0,3E0,-3.5755557E-1,-3.0526415E-1,-2.2274105E-1,-2.8602123E-1,1.6495346E-1,4.6428614E-3,-2.3316589E-1,6.114204E-2,-2.1145971E-1,-6.980946E-2,-3.2858378E-1,-1.6014428E-1],"split_indices":[1,1,1,0,0,0,1,1,1,0,0,1,1,0,0,0,0,0,0,0,0,0,0,0,0,0,0],"split_type":[0,0,0,0,0,0,0,0,0,0,0,0,0,0,0,0,0,0,0,0,0,0,0,0,0,0,0],"sum_hessian":[2.857E3,4.05E2,2.452E3,3.59E2,4.6E1,1.952E3,5E2,2.27E2,1.32E2,2.4E1,2.2E1,1.541E3,4.11E2,2.78E2,2.22E2,1.54E2,7.3E1,2.2E1,1.1E2,1.269E3,2.72E2,1.07E2,3.04E2,6.5E1,2.13E2,1.07E2,1.15E2],"tree_param":{"num_deleted":"0","num_feature":"2","num_nodes":"27","size_leaf_vector":"1"}},{"base_weights":[-7.834137E-3,-2.7413967E0,4.446054E-1,-2.8753061E0,-1.6573807E0,1.0227509E0,-1.2192928E0,-3.0822754E0,-2.4988826E-1,-9.907516E-2,-2.3099175E-1,5.7544076E-1,1.9457713E0,-3.0553052E-1,-1.8512683E0,-2.8038877E-1,-3.2532844E-1,9.9656925E-2,-5.9282433E-2,2.762041E-1,8.2701586E-2,-1.1383694E-1,-4.998703E-3,-2.4084917E-1,-6.5174185E-2],"categories":[],"categories_nodes":[],"categories_segments":[],"categories_sizes":[],"default_left":[0,0,0,0,0,0,0,0,0,0,0,0,0,0,0,0,0,0,0,0,0,0,0,0,0],"id":13,"left_children":[1,3,5,7,9,11,13,15,-1,-1,-1,17,19,21,23,-1,-1,-1,-1,-1,-1,-1,-1,-1,-1],"loss_changes":[3.5359128E3,5.416919E1,2.3609722E3,2.034497E1,1.8156464E1,7.5072815E2,3.6497644E2,1.7324219E0,0E0,0E0,0E0,6.0475415E2,5.4016016E2,5.5277992E1,2.4841333E2,0E0,0E0,0E0,0E0,0E0,0E0,0E0,0E0,0E0,0E0],"parents":[2147483647,0,0,1,1,2,2,3,3,4,4,5,5,6,6,7,7,11,11,12,12,13,13,14,14],"right_children":[2,4,6,8,10,12,14,16,-1,-1,-1,18,20,22,24,-1,-1,-1,-1,-1,-1,-1,-1,-1,-1],"split_conditions":[4E0,3E0,1.9E1,5E0,2E0,1.5E1,2.1E1,2E0,-2.4988826E-1,-9.907516E-2,-2.3099175E-1,5E0,1.7E1,2E0,4E0,-2.8038877E-1,-3.2532844E-1,9.9656925E-2,-5.9282433E-2,2.762041E-1,8.2701586E-2,-1.1383694E-1,-4.998703E-3,-2.4084917E-1,-6.5174185E-2],"split_indices":[1,1,1,0,0,1,1,0,0,0,0,0,1,0,0,0,0,0,0,0,0,0,0,0,0],"split_type":[0,0,0,0,0,0,0,0,0,0,0,0,0,0,0,0,0,0,0,0,0,0,0,0,0],"sum_hessian":[2.857E3,4.05E2,2.452E3,3.59E2,4.6E1,1.82E3,6.32E2,2.27E2,1.32E2,2.4E1,2.2E1,1.227E3,5.93E2,2.59E2,3.73E2,9.3E1,1.34E2,9.02E2,3.25E2,3.42E2,2.51E2,6E1,1.99E2,2.54E2,1.19E2],"tree_param":{"num_deleted":"0","num_feature":"2","num_nodes":"25","size_leaf_vector":"1"}},{"base_weights":[-7.474347E-3,-2.4701774E0,4.0013465E-1,-2.590152E0,-1.4986652E0,8.484805E-1,-1.3484075E0,-2.7767045E0,-2.2508729E0,-8.956393E-2,-2.0889688E-1,-6.812806E-1,1.0530808E0,-8.2126725E-1,-2.001877E0,-2.902876E-1,-2.4749029E-1,-1.7753302E-1,-2.3291306E-1,3.404366E-1,-1.149426E-1,1.24722235E-1,1.7357983E-3,-1.1122858E-1,1.1616893E-2,-2.7216777E-1,-1.3144606E-1],"categories":[],"categories_nodes":[],"categories_segments":[],"categories_sizes":[],"default_left":[0,0,0,0,0,0,0,0,0,0,0,0,0,0,0,0,0,0,0,0,0,0,0,0,0,0,0],"id":14,"left_children":[1,3,5,7,9,11,13,15,17,-1,-1,19,21,23,25,-1,-1,-1,-1,-1,-1,-1,-1,-1,-1,-1,-1],"loss_changes":[2.8699058E3,4.3440186E1,1.9241776E3,1.6535645E1,1.4859558E1,6.119861E2,1.7093549E2,1.4975586E0,8.1463623E-1,0E0,0E0,4.4574133E2,3.464336E2,7.6243576E1,1.0676355E2,0E0,0E0,0E0,0E0,0E0,0E0,0E0,0E0,0E0,0E0,0E0,0E0],"parents":[2147483647,0,0,1,1,2,2,3,3,4,4,5,5,6,6,7,7,8,8,11,11,12,12,13,13,14,14],"right_children":[2,4,6,8,10,12,14,16,18,-1,-1,20,22,24,26,-1,-1,-1,-1,-1,-1,-1,-1,-1,-1,-1,-1],"split_conditions":[4E0,3E0,2E1,5E0,2E0,6E0,2.2E1,2E0,1E0,-8.956393E-2,-2.0889688E-1,2E0,1.8E1,4E0,3E0,-2.902876E-1,-2.4749029E-1,-1.7753302E-1,-2.3291306E-1,3.404366E-1,-1.149426E-1,1.24722235E-1,1.7357983E-3,-1.1122858E-1,1.1616893E-2,-2.7216777E-1,-1.3144606E-1],"split_indices":[1,1,1,0,0,1,1,1,1,0,0,0,1,0,0,0,0,0,0,0,0,0,0,0,0,0,0],"split_type":[0,0,0,0,0,0,0,0,0,0,0,0,0,0,0,0,0,0,0,0,0,0,0,0,0,0,0],"sum_hessian":[2.857E3,4.05E2,2.452E3,3.59E2,4.6E1,1.952E3,5E2,2.27E2,1.32E2,2.4E1,2.2E1,2.3E2,1.722E3,2.78E2,2.22E2,1.54E2,7.3E1,2.2E1,1.1E2,2.3E1,2.07E2,1.45E3,2.72E2,2.12E2,6.6E1,1.07E2,1.15E2],"tree_param":{"num_deleted":"0","num_feature":"2","num_nodes":"27","size_leaf_vector":"1"}},{"base_weights":[-7.215689E-3,-2.2262304E0,3.6005995E-1,-2.3337708E0,-1.3551488E0,7.638132E-1,-1.214571E0,-2.5013928E0,-2.0288718E0,-8.096576E-2,-1.8891546E-1,1.0309159E0,-2.3773102E-1,-7.394972E-1,-1.8034995E0,-2.2725181E-1,-2.6422283E-1,-1.6055158E-1,-2.0983163E-1,6.7993395E-2,2.0245467E-1,-2.0101479E-1,3.906583E-2,-1.6000101E-1,-4.706498E-2,-2.2451594E-1,-8.838715E-2],"categories":[],"categories_nodes":[],"categories_segments":[],"categories_sizes":[],"default_left":[0,0,0,0,0,0,0,0,0,0,0,0,0,0,0,0,0,0,0,0,0,0,0,0,0,0,0],"id":15,"left_children":[1,3,5,7,9,11,13,15,17,-1,-1,19,21,23,25,-1,-1,-1,-1,-1,-1,-1,-1,-1,-1,-1,-1],"loss_changes":[2.330043E3,3.4869995E1,1.5604529E3,1.332373E1,1.2161316E1,5.2270215E2,1.3883832E2,1.3446045E0,5.4125977E-1,0E0,0E0,5.363906E2,4.596576E2,6.379268E1,8.858984E1,0E0,0E0,0E0,0E0,0E0,0E0,0E0,0E0,0E0,0E0,0E0,0E0],"parents":[2147483647,0,0,1,1,2,2,3,3,4,4,5,5,6,6,7,7,8,8,11,11,12,12,13,13,14,14],"right_children":[2,4,6,8,10,12,14,16,18,-1,-1,20,22,24,26,-1,-1,-1,-1,-1,-1,-1,-1,-1,-1,-1,-1],"split_conditions":[4E0,3E0,2E1,5E0,2E0,5E0,2.2E1,2E0,1E0,-8.096576E-2,-1.8891546E-1,4E0,9E0,2E0,4E0,-2.2725181E-1,-2.6422283E-1,-1.6055158E-1,-2.0983163E-1,6.7993395E-2,2.0245467E-1,-2.0101479E-1,3.906583E-2,-1.6000101E-1,-4.706498E-2,-2.2451594E-1,-8.838715E-2],"split_indices":[1,1,1,0,0,0,1,0,1,0,0,0,1,0,0,0,0,0,0,0,0,0,0,0,0,0,0],"split_type":[0,0,0,0,0,0,0,0,0,0,0,0,0,0,0,0,0,0,0,0,0,0,0,0,0,0,0],"sum_hessian":[2.857E3,4.05E2,2.452E3,3.59E2,4.6E1,1.952E3,5E2,2.27E2,1.32E2,2.4E1,2.2E1,1.541E3,4.11E2,2.78E2,2.22E2,9.3E1,1.34E2,2.2E1,1.1E2,1.14E3,4.01E2,1.07E2,3.04E2,6.5E1,2.13E2,1.49E2,7.3E1],"tree_param":{"num_deleted":"0","num_feature":"2","num_nodes":"27","size_leaf_vector":"1"}},{"base_weights":[-7.0341243E-3,-2.0063946E0,3.2388616E-1,-2.1027877E0,-1.2253761E0,7.5655705E-1,-9.2132324E-1,-2.2534091E0,-1.8287693E0,-7.319303E-2,-1.7084531E-1,2.5751132E-1,1.4046133E0,-2.581489E-1,-1.3798901E0,-2.3567139E-1,-2.0065759E-1,-1.4519447E-1,-1.8903747E-1,3.3078887E-2,-3.114968E-1,1.6930823E-1,6.0737543E-3,-9.776048E-2,-3.7424103E-3,-1.8168788E-1,-4.397903E-2],"categories":[],"categories_nodes":[],"categories_segments":[],"categories_sizes":[],"default_left":[0,0,0,0,0,0,0,0,0,0,0,0,0,0,0,0,0,0,0,0,0,0,0,0,0,0,0],"id":16,"left_children":[1,3,5,7,9,11,13,15,17,-1,-1,19,21,23,25,-1,-1,-1,-1,-1,-1,-1,-1,-1,-1,-1,-1],"loss_changes":[1.8915854E3,2.7989014E1,1.3222898E3,1.0737183E1,9.953033E0,5.8856726E2,1.9214526E2,1.0849609E0,3.4280396E-1,0E0,0E0,2.5557117E2,3.0692908E2,4.125187E1,1.5284491E2,0E0,0E0,0E0,0E0,0E0,0E0,0E0,0E0,0E0,0E0,0E0,0E0],"parents":[2147483647,0,0,1,1,2,2,3,3,4,4,5,5,6,6,7,7,8,8,11,11,12,12,13,13,14,14],"right_children":[2,4,6,8,10,12,14,16,18,-1,-1,20,22,24,26,-1,-1,-1,-1,-1,-1,-1,-1,-1,-1,-1,-1],"split_conditions":[4E0,3E0,1.9E1,5E0,2E0,1.3E1,2.1E1,2E0,1E0,-7.319303E-2,-1.7084531E-1,7E0,1.8E1,2E0,4E0,-2.3567139E-1,-2.0065759E-1,-1.4519447E-1,-1.8903747E-1,3.3078887E-2,-3.114968E-1,1.6930823E-1,6.0737543E-3,-9.776048E-2,-3.7424103E-3,-1.8168788E-1,-4.397903E-2],"split_indices":[1,1,1,0,0,1,1,1,1,0,0,0,1,0,0,0,0,0,0,0,0,0,0,0,0,0,0],"split_type":[0,0,0,0,0,0,0,0,0,0,0,0,0,0,0,0,0,0,0,0,0,0,0,0,0,0,0],"sum_hessian":[2.857E3,4.05E2,2.452E3,3.59E2,4.6E1,1.82E3,6.32E2,2.27E2,1.32E2,2.4E1,2.2E1,1.029E3,7.91E2,2.59E2,3.73E2,1.54E2,7.3E1,2.2E1,1.1E2,1.008E3,2.1E1,6.51E2,1.4E2,6E1,1.99E2,2.54E2,1.19E2],"tree_param":{"num_deleted":"0","num_feature":"2","num_nodes":"27","size_leaf_vector":"1"}},{"base_weights":[-6.8362085E-3,-1.3819642E0,3.8659078E-1,-1.8946495E0,-7.106692E-1,9.4891983E-1,-6.694584E-1,-2.029982E0,-1.6484056E0,1.1460091E0,-1.0950601E0,5.322727E-1,1.8627192E0,-1.1564572E0,4.782033E-1,-1.5612364E-1,-2.0724633E-1,-1.3130629E-1,-1.7030405E-1,-6.616654E-2,2.981253E-1,-5.7597306E-2,-1.8535435E-1,6.26493E-2,-1.6272768E-1,9.679338E-2,2.181301E-1,-7.294151E-2,-1.6359033E-1,3.0075297E-1,-1.3301539E-2],"categories":[],"categories_nodes":[],"categories_segments":[],"categories_sizes":[],"default_left":[0,0,0,0,0,0,0,0,0,0,0,0,0,0,0,0,0,0,0,0,0,0,0,0,0,0,0,0,0,0,0],"id":17,"left_children":[1,3,5,7,9,11,13,15,17,19,21,23,25,27,29,-1,-1,-1,-1,-1,-1,-1,-1,-1,-1,-1,-1,-1,-1,-1,-1],"loss_changes":[1.5467479E3,2.1754126E2,1.3207574E3,8.650635E0,1.9894708E2,5.5145044E2,4.325904E2,1.3045654E0,2.00531E-1,1.612137E2,8.948776E1,2.0408588E2,1.27306885E2,1.09982544E2,3.5751947E2,0E0,0E0,0E0,0E0,0E0,0E0,0E0,0E0,0E0,0E0,0E0,0E0,0E0,0E0,0E0,0E0],"parents":[2147483647,0,0,1,1,2,2,3,3,4,4,5,5,6,6,7,7,8,8,9,9,10,10,11,11,12,12,13,13,14,14],"right_children":[2,4,6,8,10,12,14,16,18,20,22,24,26,28,30,-1,-1,-1,-1,-1,-1,-1,-1,-1,-1,-1,-1,-1,-1,-1,-1],"split_conditions":[6E0,3E0,1.8E1,5E0,2E0,1.5E1,4E0,1E0,1E0,4E0,5E0,1.4E1,2E0,2.1E1,1.9E1,-1.5612364E-1,-2.0724633E-1,-1.3130629E-1,-1.7030405E-1,-6.616654E-2,2.981253E-1,-5.7597306E-2,-1.8535435E-1,6.26493E-2,-1.6272768E-1,9.679338E-2,2.181301E-1,-7.294151E-2,-1.6359033E-1,3.0075297E-1,-1.3301539E-2],"split_indices":[1,1,1,0,0,1,0,1,1,1,0,1,0,1,1,0,0,0,0,0,0,0,0,0,0,0,0,0,0,0,0],"split_type":[0,0,0,0,0,0,0,0,0,0,0,0,0,0,0,0,0,0,0,0,0,0,0,0,0,0,0,0,0,0,0],"sum_hessian":[2.857E3,6.35E2,2.222E3,3.59E2,2.76E2,1.45E3,7.72E2,2.27E2,1.32E2,4.7E1,2.29E2,9.97E2,4.53E2,5.42E2,2.3E2,2.2E1,2.05E2,2.2E1,1.1E2,2.4E1,2.3E1,1.37E2,9.2E1,9.56E2,4.1E1,1.2E2,3.33E2,2.88E2,2.54E2,4.4E1,1.86E2],"tree_param":{"num_deleted":"0","num_feature":"2","num_nodes":"31","size_leaf_vector":"1"}},{"base_weights":[-6.295987E-3,-1.2448307E0,3.4805146E-1,-1.7070318E0,-6.3964224E-1,8.5417616E-1,-6.0244656E-1,-1.8285775E0,-1.4858329E0,1.0362405E0,-9.866106E-1,4.7894558E-1,1.6771407E0,-1.041247E0,4.3162766E-1,-1.6366698E-1,-1.9486572E-1,-1.1874658E-1,-1.534271E-1,-5.9814513E-2,2.6955488E-1,-5.1879328E-2,-1.6701823E-1,7.3297404E-2,-2.6020318E-2,8.7193966E-2,1.9638239E-1,-6.56726E-2,-1.4729543E-1,2.7134606E-1,-1.1978467E-2],"categories":[],"categories_nodes":[],"categories_segments":[],"categories_sizes":[],"default_left":[0,0,0,0,0,0,0,0,0,0,0,0,0,0,0,0,0,0,0,0,0,0,0,0,0,0,0,0,0,0,0],"id":18,"left_children":[1,3,5,7,9,11,13,15,17,19,21,23,25,27,29,-1,-1,-1,-1,-1,-1,-1,-1,-1,-1,-1,-1,-1,-1,-1,-1],"loss_changes":[1.2547284E3,1.7680933E2,1.0699342E3,6.961914E0,1.6209186E2,4.472677E2,3.512E2,2.0647583E0,1.0028076E-1,1.3178592E2,7.268446E1,1.8758003E2,1.0308801E2,8.91709E1,2.9097635E2,0E0,0E0,0E0,0E0,0E0,0E0,0E0,0E0,0E0,0E0,0E0,0E0,0E0,0E0,0E0,0E0],"parents":[2147483647,0,0,1,1,2,2,3,3,4,4,5,5,6,6,7,7,8,8,9,9,10,10,11,11,12,12,13,13,14,14],"right_children":[2,4,6,8,10,12,14,16,18,20,22,24,26,28,30,-1,-1,-1,-1,-1,-1,-1,-1,-1,-1,-1,-1,-1,-1,-1,-1],"split_conditions":[6E0,3E0,1.8E1,5E0,2E0,1.5E1,4E0,2E0,1E0,4E0,5E0,5E0,2E0,2.1E1,1.9E1,-1.6366698E-1,-1.9486572E-1,-1.1874658E-1,-1.534271E-1,-5.9814513E-2,2.6955488E-1,-5.1879328E-2,-1.6701823E-1,7.3297404E-2,-2.6020318E-2,8.7193966E-2,1.9638239E-1,-6.56726E-2,-1.4729543E-1,2.7134606E-1,-1.1978467E-2],"split_indices":[1,1,1,0,0,1,0,0,1,1,0,0,0,1,1,0,0,0,0,0,0,0,0,0,0,0,0,0,0,0,0],"split_type":[0,0,0,0,0,0,0,0,0,0,0,0,0,0,0,0,0,0,0,0,0,0,0,0,0,0,0,0,0,0,0],"sum_hessian":[2.857E3,6.35E2,2.222E3,3.59E2,2.76E2,1.45E3,7.72E2,2.27E2,1.32E2,4.7E1,2.29E2,9.97E2,4.53E2,5.42E2,2.3E2,9.3E1,1.34E2,2.2E1,1.1E2,2.4E1,2.3E1,1.37E2,9.2E1,7.42E2,2.55E2,1.2E2,3.33E2,2.88E2,2.54E2,4.4E1,1.86E2],"tree_param":{"num_deleted":"0","num_feature":"2","num_nodes":"31","size_leaf_vector":"1"}},{"base_weights":[-5.758399E-3,-1.1213537E0,3.1341588E-1,-1.5380806E0,-5.757112E-1,7.689864E-1,-5.42142E-1,-1.6472924E0,-1.339296E0,9.3698627E-1,-8.889015E-1,4.3109825E-1,1.510051E0,-9.3751466E-1,3.895876E-1,-1.2255074E-1,-1.6863883E-1,-1.0738819E-1,-1.382226E-1,-5.4072328E-2,2.437226E-1,-4.672904E-2,-1.5049599E-1,5.1289763E-2,-1.4430234E-1,1.7372951E-1,5.314783E-2,-1.4600652E-1,-6.498238E-2,2.4481452E-1,-1.0787058E-2],"categories":[],"categories_nodes":[],"categories_segments":[],"categories_sizes":[],"default_left":[0,0,0,0,0,0,0,0,0,0,0,0,0,0,0,0,0,0,0,0,0,0,0,0,0,0,0,0,0,0,0],"id":19,"left_children":[1,3,5,7,9,11,13,15,17,19,21,23,25,27,29,-1,-1,-1,-1,-1,-1,-1,-1,-1,-1,-1,-1,-1,-1,-1,-1],"loss_changes":[1.0179976E3,1.4373071E2,8.668687E2,5.609192E0,1.32065E2,3.62675E2,2.851233E2,1.6930542E0,3.1082153E-2,1.0772995E2,5.90363E1,1.5373552E2,1.0003491E2,8.06821E1,2.3681877E2,0E0,0E0,0E0,0E0,0E0,0E0,0E0,0E0,0E0,0E0,0E0,0E0,0E0,0E0,0E0,0E0],"parents":[2147483647,0,0,1,1,2,2,3,3,4,4,5,5,6,6,7,7,8,8,9,9,10,10,11,11,12,12,13,13,14,14],"right_children":[2,4,6,8,10,12,14,16,18,20,22,24,26,28,30,-1,-1,-1,-1,-1,-1,-1,-1,-1,-1,-1,-1,-1,-1,-1,-1],"split_conditions":[6E0,3E0,1.8E1,5E0,2E0,1.5E1,4E0,1E0,1E0,4E0,5E0,1.4E1,5E0,2E0,1.9E1,-1.2255074E-1,-1.6863883E-1,-1.0738819E-1,-1.382226E-1,-5.4072328E-2,2.437226E-1,-4.672904E-2,-1.5049599E-1,5.1289763E-2,-1.4430234E-1,1.7372951E-1,5.314783E-2,-1.4600652E-1,-6.498238E-2,2.4481452E-1,-1.0787058E-2],"split_indices":[1,1,1,0,0,1,0,1,1,1,0,1,0,0,1,0,0,0,0,0,0,0,0,0,0,0,0,0,0,0,0],"split_type":[0,0,0,0,0,0,0,0,0,0,0,0,0,0,0,0,0,0,0,0,0,0,0,0,0,0,0,0,0,0,0],"sum_hessian":[2.857E3,6.35E2,2.222E3,3.59E2,2.76E2,1.45E3,7.72E2,2.27E2,1.32E2,4.7E1,2.29E2,9.97E2,4.53E2,5.42E2,2.3E2,2.2E1,2.05E2,2.2E1,1.1E2,2.4E1,2.3E1,1.37E2,9.2E1,9.56E2,4.1E1,3.67E2,8.6E1,1.91E2,3.51E2,4.4E1,1.86E2],"tree_param":{"num_deleted":"0","num_feature":"2","num_nodes":"31","size_leaf_vector":"1"}},{"base_weights":[-5.3183204E-3,-1.0100743E0,2.8214464E-1,-1.3857636E0,-5.181673E-1,6.921796E-1,-4.8789802E-1,-1.4838402E0,-1.207213E0,8.472386E-1,-8.008687E-1,3.8789454E-1,1.3595461E0,-8.4415185E-1,3.5164198E-1,-1.3078992E-1,-1.595356E-1,-1.0484725E-1,-1.2739109E-1,-4.888138E-2,2.2036584E-1,-4.208998E-2,-1.356082E-1,6.085537E-2,-2.5404936E-2,6.1317272E-2,1.6258684E-1,-6.1755043E-2,-1.4337307E-1,2.2087717E-1,-9.714132E-3],"categories":[],"categories_nodes":[],"categories_segments":[],"categories_sizes":[],"default_left":[0,0,0,0,0,0,0,0,0,0,0,0,0,0,0,0,0,0,0,0,0,0,0,0,0,0,0,0,0,0,0],"id":20,"left_children":[1,3,5,7,9,11,13,15,17,19,21,23,25,27,29,-1,-1,-1,-1,-1,-1,-1,-1,-1,-1,-1,-1,-1,-1,-1,-1],"loss_changes":[8.257615E2,1.1681738E2,7.0223755E2,4.5128784E0,1.0760111E2,2.941267E2,2.3149295E2,2.3868713E0,7.249451E-2,8.806506E1,4.7950897E1,1.415221E2,8.9247314E1,7.165906E1,1.9274124E2,0E0,0E0,0E0,0E0,0E0,0E0,0E0,0E0,0E0,0E0,0E0,0E0,0E0,0E0,0E0,0E0],"parents":[2147483647,0,0,1,1,2,2,3,3,4,4,5,5,6,6,7,7,8,8,9,9,10,10,11,11,12,12,13,13,14,14],"right_children":[2,4,6,8,10,12,14,16,18,20,22,24,26,28,30,-1,-1,-1,-1,-1,-1,-1,-1,-1,-1,-1,-1,-1,-1,-1,-1],"split_conditions":[6E0,3E0,1.8E1,5E0,2E0,1.5E1,4E0,2E0,7E0,4E0,5E0,5E0,2E0,2.2E1,1.9E1,-1.3078992E-1,-1.595356E-1,-1.0484725E-1,-1.2739109E-1,-4.888138E-2,2.2036584E-1,-4.208998E-2,-1.356082E-1,6.085537E-2,-2.5404936E-2,6.1317272E-2,1.6258684E-1,-6.1755043E-2,-1.4337307E-1,2.2087717E-1,-9.714132E-3],"split_indices":[1,1,1,0,0,1,0,0,0,1,0,0,0,1,1,0,0,0,0,0,0,0,0,0,0,0,0,0,0,0,0],"split_type":[0,0,0,0,0,0,0,0,0,0,0,0,0,0,0,0,0,0,0,0,0,0,0,0,0,0,0,0,0,0,0],"sum_hessian":[2.857E3,6.35E2,2.222E3,3.59E2,2.76E2,1.45E3,7.72E2,2.27E2,1.32E2,4.7E1,2.29E2,9.97E2,4.53E2,5.42E2,2.3E2,9.3E1,1.34E2,4.4E1,8.8E1,2.4E1,2.3E1,1.37E2,9.2E1,7.42E2,2.55E2,1.2E2,3.33E2,3.93E2,1.49E2,4.4E1,1.86E2],"tree_param":{"num_deleted":"0","num_feature":"2","num_nodes":"31","size_leaf_vector":"1"}},{"base_weights":[-4.8786155E-3,-9.0989816E-1,2.5404954E-1,-1.2486389E0,-4.6637276E-1,4.821259E-1,-8.748148E-1,-1.3367295E0,-1.088238E0,7.6608753E-1,-7.2155416E-1,6.1153454E-1,-9.027113E-2,-1.4726428E0,-6.2655145E-1,-1.1785006E-1,-1.4370021E-1,-9.459551E-2,-1.1479514E-1,-4.4188756E-2,1.9924746E-1,-5.1277157E-2,-1.5924813E-1,3.11838E-2,1.5137802E-1,-1.5094744E-1,8.684361E-3,-1.243481E-1,-2.2324462E-1,-2.008886E-2,-9.1174036E-2],"categories":[],"categories_nodes":[],"categories_segments":[],"categories_sizes":[],"default_left":[0,0,0,0,0,0,0,0,0,0,0,0,0,0,0,0,0,0,0,0,0,0,0,0,0,0,0,0,0,0,0],"id":21,"left_children":[1,3,5,7,9,11,13,15,17,19,21,23,25,27,29,-1,-1,-1,-1,-1,-1,-1,-1,-1,-1,-1,-1,-1,-1,-1,-1],"loss_changes":[6.699608E2,9.497034E1,5.727715E2,3.63208E0,8.7669525E1,1.3709048E2,5.4585938E1,1.9239502E0,4.408264E-2,7.1989815E1,4.1005333E1,4.075614E2,8.6096825E1,1.620285E1,3.2107735E1,0E0,0E0,0E0,0E0,0E0,0E0,0E0,0E0,0E0,0E0,0E0,0E0,0E0,0E0,0E0,0E0],"parents":[2147483647,0,0,1,1,2,2,3,3,4,4,5,5,6,6,7,7,8,8,9,9,10,10,11,11,12,12,13,13,14,14],"right_children":[2,4,6,8,10,12,14,16,18,20,22,24,26,28,30,-1,-1,-1,-1,-1,-1,-1,-1,-1,-1,-1,-1,-1,-1,-1,-1],"split_conditions":[6E0,3E0,2.1E1,5E0,2E0,5E0,2E0,2E0,7E0,4E0,7E0,4E0,9E0,2.3E1,2.2E1,-1.1785006E-1,-1.4370021E-1,-9.459551E-2,-1.1479514E-1,-4.4188756E-2,1.9924746E-1,-5.1277157E-2,-1.5924813E-1,3.11838E-2,1.5137802E-1,-1.5094744E-1,8.684361E-3,-1.243481E-1,-2.2324462E-1,-2.008886E-2,-9.1174036E-2],"split_indices":[1,1,1,0,0,0,0,0,0,1,0,0,1,1,1,0,0,0,0,0,0,0,0,0,0,0,0,0,0,0,0],"split_type":[0,0,0,0,0,0,0,0,0,0,0,0,0,0,0,0,0,0,0,0,0,0,0,0,0,0,0,0,0,0,0],"sum_hessian":[2.857E3,6.35E2,2.222E3,3.59E2,2.76E2,1.849E3,3.73E2,2.27E2,1.32E2,4.7E1,2.29E2,1.508E3,3.41E2,1.08E2,2.65E2,9.3E1,1.34E2,4.4E1,8.8E1,2.4E1,2.3E1,1.86E2,4.3E1,1.133E3,3.75E2,3.7E1,3.04E2,8.5E1,2.3E1,1.07E2,1.58E2],"tree_param":{"num_deleted":"0","num_feature":"2","num_nodes":"31","size_leaf_vector":"1"}},{"base_weights":[-4.7212597E-3,-8.1973606E-1,2.2845648E-1,-1.1250832E0,-4.199357E-1,5.79468E-1,-4.3072355E-1,-8.170749E-2,-1.1653847E0,6.92709E-1,-6.5031403E-1,3.0604994E-1,1.1792296E0,-7.3120385E-1,2.7746496E-1,-1.289647E-1,-1.0392981E-1,-3.9946657E-2,1.8015291E-1,-3.2820877E-2,-1.121284E-1,3.7559334E-2,-1.2858331E-1,1.3816077E-1,3.0963916E-2,-1.1578677E-1,-4.964009E-2,1.8447886E-1,-1.01182265E-2],"categories":[],"categories_nodes":[],"categories_segments":[],"categories_sizes":[],"default_left":[0,0,0,0,0,0,0,0,0,0,0,0,0,0,0,0,0,0,0,0,0,0,0,0,0,0,0,0,0],"id":22,"left_children":[1,3,5,7,9,11,13,-1,15,17,19,21,23,25,27,-1,-1,-1,-1,-1,-1,-1,-1,-1,-1,-1,-1,-1,-1],"loss_changes":[5.4333105E2,7.716907E1,5.146068E2,3.5165405E0,7.1453674E1,2.375823E2,1.6469472E2,0E0,3.6107178E0,5.8848915E1,3.4523422E1,1.1096651E2,7.946991E1,5.3824005E1,1.3727655E2,0E0,0E0,0E0,0E0,0E0,0E0,0E0,0E0,0E0,0E0,0E0,0E0,0E0,0E0],"parents":[2147483647,0,0,1,1,2,2,3,3,4,4,5,5,6,6,8,8,9,9,10,10,11,11,12,12,13,13,14,14],"right_children":[2,4,6,8,10,12,14,-1,16,18,20,22,24,26,28,-1,-1,-1,-1,-1,-1,-1,-1,-1,-1,-1,-1,-1,-1],"split_conditions":[6E0,3E0,1.8E1,1E0,2E0,1.5E1,4E0,-8.170749E-2,2E0,4E0,5E0,1.4E1,5E0,2E0,1.9E1,-1.289647E-1,-1.0392981E-1,-3.9946657E-2,1.8015291E-1,-3.2820877E-2,-1.121284E-1,3.7559334E-2,-1.2858331E-1,1.3816077E-1,3.0963916E-2,-1.1578677E-1,-4.964009E-2,1.8447886E-1,-1.01182265E-2],"split_indices":[1,1,1,1,0,1,0,0,1,1,0,1,0,0,1,0,0,0,0,0,0,0,0,0,0,0,0,0,0],"split_type":[0,0,0,0,0,0,0,0,0,0,0,0,0,0,0,0,0,0,0,0,0,0,0,0,0,0,0,0,0],"sum_hessian":[2.857E3,6.35E2,2.222E3,3.59E2,2.76E2,1.45E3,7.72E2,4.4E1,3.15E2,4.7E1,2.29E2,9.97E2,4.53E2,5.42E2,2.3E2,1.54E2,1.61E2,2.4E1,2.3E1,1.37E2,9.2E1,9.56E2,4.1E1,3.67E2,8.6E1,1.91E2,3.51E2,4.4E1,1.86E2],"tree_param":{"num_deleted":"0","num_feature":"2","num_nodes":"29","size_leaf_vector":"1"}},{"base_weights":[-4.330469E-3,-7.382646E-1,2.0564994E-1,-1.0134487E0,-3.7795943E-1,5.215749E-1,-3.8763964E-1,-7.371832E-2,-1.0495832E0,6.263591E-1,-5.8591306E-1,2.7535358E-1,1.0616792E0,-6.5838826E-1,2.504735E-1,-1.1615143E-1,-9.360097E-2,-3.6111783E-2,1.6288827E-1,-4.0834237E-2,-1.3272724E-1,3.3807307E-2,-1.1603107E-1,1.2973532E-1,3.3044867E-2,-1.0426841E-1,-4.4690195E-2,1.6644095E-1,-9.11179E-3],"categories":[],"categories_nodes":[],"categories_segments":[],"categories_sizes":[],"default_left":[0,0,0,0,0,0,0,0,0,0,0,0,0,0,0,0,0,0,0,0,0,0,0,0,0,0,0,0,0],"id":23,"left_children":[1,3,5,7,9,11,13,-1,15,17,19,21,23,25,27,-1,-1,-1,-1,-1,-1,-1,-1,-1,-1,-1,-1,-1,-1],"loss_changes":[4.4060333E2,6.2676514E1,4.168702E2,2.8200378E0,5.8218903E1,1.9266919E2,1.3371475E2,0E0,2.9299316E0,4.8106728E1,2.9736061E1,9.025631E1,7.780997E1,4.366542E1,1.1172195E2,0E0,0E0,0E0,0E0,0E0,0E0,0E0,0E0,0E0,0E0,0E0,0E0,0E0,0E0],"parents":[2147483647,0,0,1,1,2,2,3,3,4,4,5,5,6,6,8,8,9,9,10,10,11,11,12,12,13,13,14,14],"right_children":[2,4,6,8,10,12,14,-1,16,18,20,22,24,26,28,-1,-1,-1,-1,-1,-1,-1,-1,-1,-1,-1,-1,-1,-1],"split_conditions":[6E0,3E0,1.8E1,1E0,2E0,1.5E1,4E0,-7.371832E-2,2E0,4E0,7E0,1.4E1,1.7E1,2E0,1.9E1,-1.1615143E-1,-9.360097E-2,-3.6111783E-2,1.6288827E-1,-4.0834237E-2,-1.3272724E-1,3.3807307E-2,-1.1603107E-1,1.2973532E-1,3.3044867E-2,-1.0426841E-1,-4.4690195E-2,1.6644095E-1,-9.11179E-3],"split_indices":[1,1,1,1,0,1,0,0,1,1,0,1,1,0,1,0,0,0,0,0,0,0,0,0,0,0,0,0,0],"split_type":[0,0,0,0,0,0,0,0,0,0,0,0,0,0,0,0,0,0,0,0,0,0,0,0,0,0,0,0,0],"sum_hessian":[2.857E3,6.35E2,2.222E3,3.59E2,2.76E2,1.45E3,7.72E2,4.4E1,3.15E2,4.7E1,2.29E2,9.97E2,4.53E2,5.42E2,2.3E2,1.54E2,1.61E2,2.4E1,2.3E1,1.86E2,4.3E1,9.56E2,4.1E1,3.42E2,1.11E2,1.91E2,3.51E2,4.4E1,1.86E2],"tree_param":{"num_deleted":"0","num_feature":"2","num_nodes":"29","size_leaf_vector":"1"}},{"base_weights":[-3.982092E-3,-6.649574E-1,1.8512464E-1,-9.128913E-1,-3.4033218E-1,3.6033896E-1,-6.820722E-1,-9.840528E-1,-7.840364E-1,-4.333274E-2,-9.274781E-1,4.7290808E-1,-1.3740115E-1,-8.7399906E-1,-2.6854378E-1,-6.6956535E-2,-1.0143886E-1,-6.576411E-2,-8.3913475E-2,5.663647E-2,-2.550874E-2,-1.1618995E-1,-2.7870378E-2,2.1830766E-2,1.23951435E-1,-1.4319883E-1,2.4342183E-3,-6.869497E-2,-1.421491E-1,2.5780827E-2,-5.992195E-2],"categories":[],"categories_nodes":[],"categories_segments":[],"categories_sizes":[],"default_left":[0,0,0,0,0,0,0,0,0,0,0,0,0,0,0,0,0,0,0,0,0,0,0,0,0,0,0,0,0,0,0],"id":24,"left_children":[1,3,5,7,9,11,13,15,17,19,21,23,25,27,29,-1,-1,-1,-1,-1,-1,-1,-1,-1,-1,-1,-1,-1,-1,-1,-1],"loss_changes":[3.5735846E2,5.0878143E1,3.380202E2,2.52948E0,4.8263626E1,1.03720764E2,2.9448624E1,1.4959869E0,3.7438965E-1,2.4029135E1,1.3820229E1,2.9425342E2,7.164653E1,2.5137558E1,2.1040703E1,0E0,0E0,0E0,0E0,0E0,0E0,0E0,0E0,0E0,0E0,0E0,0E0,0E0,0E0,0E0,0E0],"parents":[2147483647,0,0,1,1,2,2,3,3,4,4,5,5,6,6,7,7,8,8,9,9,10,10,11,11,12,12,13,13,14,14],"right_children":[2,4,6,8,10,12,14,16,18,20,22,24,26,28,30,-1,-1,-1,-1,-1,-1,-1,-1,-1,-1,-1,-1,-1,-1,-1,-1],"split_conditions":[6E0,3E0,2.1E1,5E0,5E0,5E0,4E0,1E0,7E0,2E0,5E0,4E0,9E0,3E0,2.2E1,-6.6956535E-2,-1.0143886E-1,-6.576411E-2,-8.3913475E-2,5.663647E-2,-2.550874E-2,-1.1618995E-1,-2.7870378E-2,2.1830766E-2,1.23951435E-1,-1.4319883E-1,2.4342183E-3,-6.869497E-2,-1.421491E-1,2.5780827E-2,-5.992195E-2],"split_indices":[1,1,1,0,0,0,0,1,0,0,1,0,1,0,1,0,0,0,0,0,0,0,0,0,0,0,0,0,0,0,0],"split_type":[0,0,0,0,0,0,0,0,0,0,0,0,0,0,0,0,0,0,0,0,0,0,0,0,0,0,0,0,0,0,0],"sum_hessian":[2.857E3,6.35E2,2.222E3,3.59E2,2.76E2,1.849E3,3.73E2,2.27E2,1.32E2,1.84E2,9.2E1,1.508E3,3.41E2,2.54E2,1.19E2,2.2E1,2.05E2,4.4E1,8.8E1,4.7E1,1.37E2,6.7E1,2.5E1,1.133E3,3.75E2,3.7E1,3.04E2,1.91E2,6.3E1,4.6E1,7.3E1],"tree_param":{"num_deleted":"0","num_feature":"2","num_nodes":"31","size_leaf_vector":"1"}},{"base_weights":[-3.8187795E-3,-5.991394E-1,1.6650409E-1,-8.224858E-1,-3.0670667E-1,4.3734837E-1,-3.421137E-1,-8.8638616E-1,-7.067583E-1,-3.883119E-2,-8.3627933E-1,1.3404138E-1,8.0883336E-1,-5.637466E-1,1.8034852E-1,-7.559907E-2,-9.7061425E-2,-5.9333857E-2,-7.561643E-2,5.1090784E-2,-2.2976337E-2,-1.0474181E-1,-2.5190553E-2,1.2532721E-1,6.251798E-3,1.0775097E-1,-1.0540601E-2,-9.097551E-2,-3.734132E-2,1.3804705E-1,-1.0941534E-2],"categories":[],"categories_nodes":[],"categories_segments":[],"categories_sizes":[],"default_left":[0,0,0,0,0,0,0,0,0,0,0,0,0,0,0,0,0,0,0,0,0,0,0,0,0,0,0,0,0,0,0],"id":25,"left_children":[1,3,5,7,9,11,13,15,17,19,21,23,25,27,29,-1,-1,-1,-1,-1,-1,-1,-1,-1,-1,-1,-1,-1,-1,-1,-1],"loss_changes":[2.8989154E2,4.1287323E1,3.0638168E2,2.0357513E0,3.926262E1,1.6338159E2,8.961107E1,1.7703247E0,2.966156E-1,1.9535519E1,1.1210854E1,6.396261E1,1.6026718E2,3.5420624E1,8.048175E1,0E0,0E0,0E0,0E0,0E0,0E0,0E0,0E0,0E0,0E0,0E0,0E0,0E0,0E0,0E0,0E0],"parents":[2147483647,0,0,1,1,2,2,3,3,4,4,5,5,6,6,7,7,8,8,9,9,10,10,11,11,12,12,13,13,14,14],"right_children":[2,4,6,8,10,12,14,16,18,20,22,24,26,28,30,-1,-1,-1,-1,-1,-1,-1,-1,-1,-1,-1,-1,-1,-1,-1,-1],"split_conditions":[6E0,3E0,1.8E1,5E0,5E0,1.3E1,4E0,2E0,7E0,2E0,5E0,7E0,5E0,2E0,1.9E1,-7.559907E-2,-9.7061425E-2,-5.9333857E-2,-7.561643E-2,5.1090784E-2,-2.2976337E-2,-1.0474181E-1,-2.5190553E-2,1.2532721E-1,6.251798E-3,1.0775097E-1,-1.0540601E-2,-9.097551E-2,-3.734132E-2,1.3804705E-1,-1.0941534E-2],"split_indices":[1,1,1,0,0,1,0,0,0,0,1,1,0,0,1,0,0,0,0,0,0,0,0,0,0,0,0,0,0,0,0],"split_type":[0,0,0,0,0,0,0,0,0,0,0,0,0,0,0,0,0,0,0,0,0,0,0,0,0,0,0,0,0,0,0],"sum_hessian":[2.857E3,6.35E2,2.222E3,3.59E2,2.76E2,1.45E3,7.72E2,2.27E2,1.32E2,1.84E2,9.2E1,7.99E2,6.51E2,5.42E2,2.3E2,9.3E1,1.34E2,4.4E1,8.8E1,4.7E1,1.37E2,6.7E1,2.5E1,4.7E1,7.52E2,5.03E2,1.48E2,1.91E2,3.51E2,4.4E1,1.86E2],"tree_param":{"num_deleted":"0","num_feature":"2","num_nodes":"31","size_leaf_vector":"1"}},{"base_weights":[-3.5008767E-3,-5.3986937E-1,1.4995565E-1,-7.410918E-1,-2.7640384E-1,3.9377058E-1,-3.079039E-1,-5.2375745E-2,-7.6969606E-1,-3.479639E-2,-7.540487E-1,1.2080125E-1,7.2809833E-1,-5.0760823E-1,1.6286398E-1,-8.620805E-2,-6.765523E-2,4.608815E-2,-2.0695394E-2,-9.4421685E-2,-2.2768404E-2,1.1305552E-1,5.6274035E-3,9.6997164E-2,-9.493674E-3,-4.53694E-2,-1.6545998E-1,1.245492E-1,-9.85324E-3],"categories":[],"categories_nodes":[],"categories_segments":[],"categories_sizes":[],"default_left":[0,0,0,0,0,0,0,0,0,0,0,0,0,0,0,0,0,0,0,0,0,0,0,0,0,0,0,0,0],"id":26,"left_children":[1,3,5,7,9,11,13,-1,15,17,19,21,23,25,27,-1,-1,-1,-1,-1,-1,-1,-1,-1,-1,-1,-1,-1,-1],"loss_changes":[2.3532077E2,3.3512817E1,2.4828137E2,1.8348694E0,3.1940271E1,1.3233208E2,7.275579E1,0E0,2.1359406E0,1.58823E1,9.094109E0,5.206166E1,1.2988583E2,3.2827988E1,6.549458E1,0E0,0E0,0E0,0E0,0E0,0E0,0E0,0E0,0E0,0E0,0E0,0E0,0E0,0E0],"parents":[2147483647,0,0,1,1,2,2,3,3,4,4,5,5,6,6,8,8,9,9,10,10,11,11,12,12,13,13,14,14],"right_children":[2,4,6,8,10,12,14,-1,16,18,20,22,24,26,28,-1,-1,-1,-1,-1,-1,-1,-1,-1,-1,-1,-1,-1,-1],"split_conditions":[6E0,3E0,1.8E1,1E0,5E0,1.3E1,4E0,-5.2375745E-2,2E0,2E0,5E0,7E0,5E0,2.3E1,1.9E1,-8.620805E-2,-6.765523E-2,4.608815E-2,-2.0695394E-2,-9.4421685E-2,-2.2768404E-2,1.1305552E-1,5.6274035E-3,9.6997164E-2,-9.493674E-3,-4.53694E-2,-1.6545998E-1,1.245492E-1,-9.85324E-3],"split_indices":[1,1,1,1,0,1,0,0,1,0,1,1,0,1,1,0,0,0,0,0,0,0,0,0,0,0,0,0,0],"split_type":[0,0,0,0,0,0,0,0,0,0,0,0,0,0,0,0,0,0,0,0,0,0,0,0,0,0,0,0,0],"sum_hessian":[2.857E3,6.35E2,2.222E3,3.59E2,2.76E2,1.45E3,7.72E2,4.4E1,3.15E2,1.84E2,9.2E1,7.99E2,6.51E2,5.42E2,2.3E2,1.54E2,1.61E2,4.7E1,1.37E2,6.7E1,2.5E1,4.7E1,7.52E2,5.03E2,1.48E2,5.19E2,2.3E1,4.4E1,1.86E2],"tree_param":{"num_deleted":"0","num_feature":"2","num_nodes":"29","size_leaf_vector":"1"}},{"base_weights":[-3.216264E-3,-4.8635092E-1,1.3500994E-1,-6.675555E-1,-2.4909465E-1,3.5453615E-1,-2.7723783E-1,-7.2187954E-1,-5.694093E-1,-3.1179253E-2,-6.7990386E-1,1.693914E-1,7.607475E-1,-9.815141E-2,-7.184907E-1,-6.1031293E-2,-7.942157E-2,-4.6757128E-2,-6.1450254E-2,4.157539E-2,-1.8640833E-2,-8.511836E-2,-2.0579133E-2,2.218462E-2,-1.0298617E-1,6.940353E-3,1.0089268E-1,-3.210798E-2,4.5837983E-2,-9.807672E-2,-4.6810843E-2],"categories":[],"categories_nodes":[],"categories_segments":[],"categories_sizes":[],"default_left":[0,0,0,0,0,0,0,0,0,0,0,0,0,0,0,0,0,0,0,0,0,0,0,0,0,0,0,0,0,0,0],"id":27,"left_children":[1,3,5,7,9,11,13,15,17,19,21,23,25,27,29,-1,-1,-1,-1,-1,-1,-1,-1,-1,-1,-1,-1,-1,-1,-1,-1],"loss_changes":[1.9092825E2,2.7176575E1,2.0127802E2,1.5083618E0,2.598355E1,1.0899777E2,6.1013794E1,1.3553009E0,3.2344055E-1,1.2912249E1,7.37698E0,6.300924E1,7.782605E1,6.850787E1,1.4185173E1,0E0,0E0,0E0,0E0,0E0,0E0,0E0,0E0,0E0,0E0,0E0,0E0,0E0,0E0,0E0,0E0],"parents":[2147483647,0,0,1,1,2,2,3,3,4,4,5,5,6,6,7,7,8,8,9,9,10,10,11,11,12,12,13,13,14,14],"right_children":[2,4,6,8,10,12,14,16,18,20,22,24,26,28,30,-1,-1,-1,-1,-1,-1,-1,-1,-1,-1,-1,-1,-1,-1,-1,-1],"split_conditions":[6E0,3E0,1.8E1,5E0,5E0,1.5E1,2.2E1,2E0,7E0,2E0,5E0,1.4E1,2E0,4E0,3E0,-6.1031293E-2,-7.942157E-2,-4.6757128E-2,-6.1450254E-2,4.157539E-2,-1.8640833E-2,-8.511836E-2,-2.0579133E-2,2.218462E-2,-1.0298617E-1,6.940353E-3,1.0089268E-1,-3.210798E-2,4.5837983E-2,-9.807672E-2,-4.6810843E-2],"split_indices":[1,1,1,0,0,1,1,0,0,0,1,1,0,0,0,0,0,0,0,0,0,0,0,0,0,0,0,0,0,0,0],"split_type":[0,0,0,0,0,0,0,0,0,0,0,0,0,0,0,0,0,0,0,0,0,0,0,0,0,0,0,0,0,0,0],"sum_hessian":[2.857E3,6.35E2,2.222E3,3.59E2,2.76E2,1.45E3,7.72E2,2.27E2,1.32E2,1.84E2,9.2E1,9.97E2,4.53E2,5.5E2,2.22E2,9.3E1,1.34E2,4.4E1,8.8E1,4.7E1,1.37E2,6.7E1,2.5E1,9.56E2,4.1E1,1.2E2,3.33E2,3.93E2,1.57E2,1.07E2,1.15E2],"tree_param":{"num_deleted":"0","num_feature":"2","num_nodes":"31","size_leaf_vector":"1"}},{"base_weights":[-3.0469638E-3,-4.3823692E-1,1.21462196E-1,-6.014906E-1,-2.2448398E-1,3.4441295E-1,-2.1663223E-1,-4.108582E-2,-6.267342E-1,-2.7937373E-2,-6.1305E-1,1.5237153E-1,9.0217656E-1,-9.9221176E-1,7.229137E-2,-7.045287E-2,-5.4843247E-2,-1.6963558E-2,3.9172195E-2,-7.6731704E-2,-1.8600347E-2,1.99685E-2,-9.293275E-2,1.1809005E-1,6.8449923E-3,-1.9003172E-1,-5.9945554E-2,1.626859E-1,-9.878186E-3],"categories":[],"categories_nodes":[],"categories_segments":[],"categories_sizes":[],"default_left":[0,0,0,0,0,0,0,0,0,0,0,0,0,0,0,0,0,0,0,0,0,0,0,0,0,0,0,0,0],"id":28,"left_children":[1,3,5,7,9,11,13,-1,15,17,19,21,23,25,27,-1,-1,-1,-1,-1,-1,-1,-1,-1,-1,-1,-1,-1,-1],"loss_changes":[1.5491434E2,2.2058815E1,1.6764081E2,1.4748993E0,2.1137728E1,1.4339493E2,1.981613E2,0E0,1.5385132E0,1.1067469E1,5.984043E0,5.1262154E1,7.962537E1,8.446019E1,1.7169514E2,0E0,0E0,0E0,0E0,0E0,0E0,0E0,0E0,0E0,0E0,0E0,0E0,0E0,0E0],"parents":[2147483647,0,0,1,1,2,2,3,3,4,4,5,5,6,6,8,8,9,9,10,10,11,11,12,12,13,13,14,14],"right_children":[2,4,6,8,10,12,14,-1,16,18,20,22,24,26,28,-1,-1,-1,-1,-1,-1,-1,-1,-1,-1,-1,-1,-1,-1],"split_conditions":[6E0,3E0,1.7E1,1E0,5E0,1.5E1,2E0,-4.108582E-2,2E0,4E0,5E0,1.4E1,5E0,1.9E1,1.8E1,-7.045287E-2,-5.4843247E-2,-1.6963558E-2,3.9172195E-2,-7.6731704E-2,-1.8600347E-2,1.99685E-2,-9.293275E-2,1.1809005E-1,6.8449923E-3,-1.9003172E-1,-5.9945554E-2,1.626859E-1,-9.878186E-3],"split_indices":[1,1,1,1,0,1,0,0,1,0,1,1,0,1,1,0,0,0,0,0,0,0,0,0,0,0,0,0,0],"split_type":[0,0,0,0,0,0,0,0,0,0,0,0,0,0,0,0,0,0,0,0,0,0,0,0,0,0,0,0,0],"sum_hessian":[2.857E3,6.35E2,2.222E3,3.59E2,2.76E2,1.339E3,8.83E2,4.4E1,3.15E2,1.84E2,9.2E1,9.97E2,3.42E2,2.39E2,6.44E2,1.54E2,1.61E2,1.38E2,4.6E1,6.7E1,2.5E1,9.56E2,4.1E1,2.56E2,8.6E1,7.1E1,1.68E2,6.3E1,5.81E2],"tree_param":{"num_deleted":"0","num_feature":"2","num_nodes":"29","size_leaf_vector":"1"}},{"base_weights":[-2.8416961E-3,-3.947897E-1,1.0929585E-1,-5.4180366E-1,-2.0229934E-1,2.2406778E-1,-4.5871848E-1,-3.706855E-2,-5.6445724E-1,3.9165565E-1,-3.2537562E-1,-1.7204168E-1,3.2794094E-1,-2.1455282E-1,-6.2308824E-1,-6.345303E-2,-4.9392767E-2,-4.977411E-2,1.3017915E-1,-2.2814663E-2,-7.3120385E-2,2.6123608E-2,-1.0044698E-1,4.735781E-2,-1.5208748E-2,2.0272221E-2,-7.329915E-2,-8.441422E-2,-4.11908E-2],"categories":[],"categories_nodes":[],"categories_segments":[],"categories_sizes":[],"default_left":[0,0,0,0,0,0,0,0,0,0,0,0,0,0,0,0,0,0,0,0,0,0,0,0,0,0,0,0,0],"id":29,"left_children":[1,3,5,7,9,11,13,-1,15,17,19,21,23,25,27,-1,-1,-1,-1,-1,-1,-1,-1,-1,-1,-1,-1,-1,-1],"loss_changes":[1.2565821E2,1.7888412E1,1.4502481E2,1.1862869E0,2.0376621E1,7.6174934E1,1.4876228E1,0E0,1.2483292E0,3.9502605E1,8.908581E0,1.3912135E2,1.0256001E2,3.3030983E1,1.0062431E1,0E0,0E0,0E0,0E0,0E0,0E0,0E0,0E0,0E0,0E0,0E0,0E0,0E0,0E0],"parents":[2147483647,0,0,1,1,2,2,3,3,4,4,5,5,6,6,8,8,9,9,10,10,11,11,12,12,13,13,14,14],"right_children":[2,4,6,8,10,12,14,-1,16,18,20,22,24,26,28,-1,-1,-1,-1,-1,-1,-1,-1,-1,-1,-1,-1,-1,-1],"split_conditions":[6E0,3E0,2.1E1,1E0,2E0,2E0,2.2E1,-3.706855E-2,2E0,4E0,7E0,1.7E1,5E0,3E0,3E0,-6.345303E-2,-4.9392767E-2,-4.977411E-2,1.3017915E-1,-2.2814663E-2,-7.3120385E-2,2.6123608E-2,-1.0044698E-1,4.735781E-2,-1.5208748E-2,2.0272221E-2,-7.329915E-2,-8.441422E-2,-4.11908E-2],"split_indices":[1,1,1,1,0,0,1,0,1,1,0,1,0,0,0,0,0,0,0,0,0,0,0,0,0,0,0,0,0],"split_type":[0,0,0,0,0,0,0,0,0,0,0,0,0,0,0,0,0,0,0,0,0,0,0,0,0,0,0,0,0],"sum_hessian":[2.857E3,6.35E2,2.222E3,3.59E2,2.76E2,1.849E3,3.73E2,4.4E1,3.15E2,4.7E1,2.29E2,3.84E2,1.465E3,1.51E2,2.22E2,1.54E2,1.61E2,2.4E1,2.3E1,1.86E2,4.3E1,2.53E2,1.31E2,1.124E3,3.41E2,8.4E1,6.7E1,1.07E2,1.15E2],"tree_param":{"num_deleted":"0","num_feature":"2","num_nodes":"29","size_leaf_vector":"1"}},{"base_weights":[-2.6924743E-3,-3.5557085E-1,9.826719E-2,-4.8803982E-1,-1.8212537E-1,2.016385E-1,-4.133242E-1,-5.318682E-1,-4.0923595E-1,3.5416555E-1,-2.9325512E-1,-1.550303E-1,2.951691E-1,-7.1070844E-1,-2.899099E-1,-4.404911E-2,-5.91554E-2,-3.1817935E-2,-4.506777E-2,-4.499579E-2,1.1770373E-1,-2.0545399E-2,-6.5974504E-2,2.352159E-2,-9.047841E-2,4.2626265E-2,-1.3692277E-2,-5.4812144E-2,-1.2636988E-1,1.2929395E-2,-4.8074715E-2],"categories":[],"categories_nodes":[],"categories_segments":[],"categories_sizes":[],"default_left":[0,0,0,0,0,0,0,0,0,0,0,0,0,0,0,0,0,0,0,0,0,0,0,0,0,0,0,0,0,0,0],"id":30,"left_children":[1,3,5,7,9,11,13,15,17,19,21,23,25,27,29,-1,-1,-1,-1,-1,-1,-1,-1,-1,-1,-1,-1,-1,-1,-1,-1],"loss_changes":[1.0185543E2,1.4523941E1,1.1764419E2,1.0257263E0,1.661247E1,6.176072E1,1.3520306E1,9.829178E-1,3.5848618E-1,3.2290756E1,7.2654457E0,1.12859406E2,8.309914E1,9.107426E0,2.1342077E1,0E0,0E0,0E0,0E0,0E0,0E0,0E0,0E0,0E0,0E0,0E0,0E0,0E0,0E0,0E0,0E0],"parents":[2147483647,0,0,1,1,2,2,3,3,4,4,5,5,6,6,7,7,8,8,9,9,10,10,11,11,12,12,13,13,14,14],"right_children":[2,4,6,8,10,12,14,16,18,20,22,24,26,28,30,-1,-1,-1,-1,-1,-1,-1,-1,-1,-1,-1,-1,-1,-1,-1,-1],"split_conditions":[6E0,3E0,2.1E1,5E0,2E0,2E0,2E0,2E0,7E0,4E0,7E0,1.7E1,5E0,2.3E1,3E0,-4.404911E-2,-5.91554E-2,-3.1817935E-2,-4.506777E-2,-4.499579E-2,1.1770373E-1,-2.0545399E-2,-6.5974504E-2,2.352159E-2,-9.047841E-2,4.2626265E-2,-1.3692277E-2,-5.4812144E-2,-1.2636988E-1,1.2929395E-2,-4.8074715E-2],"split_indices":[1,1,1,0,0,0,0,0,0,1,0,1,0,1,0,0,0,0,0,0,0,0,0,0,0,0,0,0,0,0,0],"split_type":[0,0,0,0,0,0,0,0,0,0,0,0,0,0,0,0,0,0,0,0,0,0,0,0,0,0,0,0,0,0,0],"sum_hessian":[2.857E3,6.35E2,2.222E3,3.59E2,2.76E2,1.849E3,3.73E2,2.27E2,1.32E2,4.7E1,2.29E2,3.84E2,1.465E3,1.08E2,2.65E2,9.3E1,1.34E2,4.4E1,8.8E1,2.4E1,2.3E1,1.86E2,4.3E1,2.53E2,1.31E2,1.124E3,3.41E2,8.5E1,2.3E1,8.3E1,1.82E2],"tree_param":{"num_deleted":"0","num_feature":"2","num_nodes":"31","size_leaf_vector":"1"}},{"base_weights":[-2.5797659E-3,-3.2031873E-1,8.832647E-2,-4.397361E-1,-1.639629E-1,2.4089797E-1,-1.981801E-1,-2.8996488E-2,-4.5967272E-1,3.2026365E-1,-2.64306E-1,1.3547681E-2,5.194859E-1,-3.4580368E-1,1.4968908E-1,-5.0180253E-2,-3.7734464E-2,-4.0676147E-2,1.0642373E-1,-1.2672837E-2,-4.6561144E-2,-3.303537E-2,2.1080831E-2,6.930278E-2,-7.101475E-3,-8.067968E-2,-2.4499355E-2,1.0005665E-1,-5.586799E-3],"categories":[],"categories_nodes":[],"categories_segments":[],"categories_sizes":[],"default_left":[0,0,0,0,0,0,0,0,0,0,0,0,0,0,0,0,0,0,0,0,0,0,0,0,0,0,0,0,0],"id":31,"left_children":[1,3,5,7,9,11,13,-1,15,17,19,21,23,25,27,-1,-1,-1,-1,-1,-1,-1,-1,-1,-1,-1,-1,-1,-1],"loss_changes":[8.258006E1,1.180304E1,9.722116E1,9.416504E-1,1.3543745E1,9.189502E1,3.9748173E1,0E0,9.066849E-1,2.6395487E1,6.310871E0,5.4340206E1,6.686395E1,2.5037056E1,4.0458694E1,0E0,0E0,0E0,0E0,0E0,0E0,0E0,0E0,0E0,0E0,0E0,0E0,0E0,0E0],"parents":[2147483647,0,0,1,1,2,2,3,3,4,4,5,5,6,6,8,8,9,9,10,10,11,11,12,12,13,13,14,14],"right_children":[2,4,6,8,10,12,14,-1,16,18,20,22,24,26,28,-1,-1,-1,-1,-1,-1,-1,-1,-1,-1,-1,-1,-1,-1],"split_conditions":[6E0,3E0,1.8E1,1E0,2E0,1.3E1,4E0,-2.8996488E-2,5E0,4E0,5E0,3E0,5E0,1.9E1,1.9E1,-5.0180253E-2,-3.7734464E-2,-4.0676147E-2,1.0642373E-1,-1.2672837E-2,-4.6561144E-2,-3.303537E-2,2.1080831E-2,6.930278E-2,-7.101475E-3,-8.067968E-2,-2.4499355E-2,1.0005665E-1,-5.586799E-3],"split_indices":[1,1,1,1,0,1,0,0,0,1,0,0,0,1,1,0,0,0,0,0,0,0,0,0,0,0,0,0,0],"split_type":[0,0,0,0,0,0,0,0,0,0,0,0,0,0,0,0,0,0,0,0,0,0,0,0,0,0,0,0,0],"sum_hessian":[2.857E3,6.35E2,2.222E3,3.59E2,2.76E2,1.45E3,7.72E2,4.4E1,3.15E2,4.7E1,2.29E2,7.99E2,6.51E2,5.42E2,2.3E2,2.05E2,1.1E2,2.4E1,2.3E1,1.37E2,9.2E1,2.91E2,5.08E2,5.03E2,1.48E2,9.6E1,4.46E2,4.4E1,1.86E2],"tree_param":{"num_deleted":"0","num_feature":"2","num_nodes":"29","size_leaf_vector":"1"}},{"base_weights":[-2.346718E-3,-2.9678866E-1,7.768281E-2,-3.960873E-1,-1.5375578E-1,1.6377844E-1,-3.5415405E-1,-2.6161283E-2,-4.1398367E-1,-1.0006864E-2,-5.425763E-1,-1.4324722E-1,2.4294752E-1,-4.7505853E-1,-9.428074E-2,-4.7045242E-2,-3.5739955E-2,-1.5135077E-2,4.0822312E-2,8.625541E-3,-8.451971E-2,2.0641597E-2,-8.1499875E-2,3.6402997E-2,-1.2887999E-2,-2.8872265E-2,-1.02664344E-1,3.4199283E-2,-3.7009936E-2],"categories":[],"categories_nodes":[],"categories_segments":[],"categories_sizes":[],"default_left":[0,0,0,0,0,0,0,0,0,0,0,0,0,0,0,0,0,0,0,0,0,0,0,0,0,0,0,0,0],"id":32,"left_children":[1,3,5,7,9,11,13,-1,15,17,19,21,23,25,27,-1,-1,-1,-1,-1,-1,-1,-1,-1,-1,-1,-1,-1,-1],"loss_changes":[6.736911E1,8.617111E0,8.3636986E1,7.580795E-1,1.4079488E1,4.5610313E1,1.1706234E1,0E0,8.4155273E-1,1.0997923E1,1.3013132E1,9.059964E1,6.7174385E1,2.591249E1,1.4566457E1,0E0,0E0,0E0,0E0,0E0,0E0,0E0,0E0,0E0,0E0,0E0,0E0,0E0,0E0],"parents":[2147483647,0,0,1,1,2,2,3,3,4,4,5,5,6,6,8,8,9,9,10,10,11,11,12,12,13,13,14,14],"right_children":[2,4,6,8,10,12,14,-1,16,18,20,22,24,26,28,-1,-1,-1,-1,-1,-1,-1,-1,-1,-1,-1,-1,-1,-1],"split_conditions":[5E0,3E0,2.1E1,1E0,5E0,2E0,4E0,-2.6161283E-2,2E0,4E0,4E0,1.7E1,5E0,3E0,2.2E1,-4.7045242E-2,-3.5739955E-2,-1.5135077E-2,4.0822312E-2,8.625541E-3,-8.451971E-2,2.0641597E-2,-8.1499875E-2,3.6402997E-2,-1.2887999E-2,-2.8872265E-2,-1.02664344E-1,3.4199283E-2,-3.7009936E-2],"split_indices":[1,1,1,1,0,0,0,0,1,0,1,1,0,0,1,0,0,0,0,0,0,0,0,0,0,0,0,0,0],"split_type":[0,0,0,0,0,0,0,0,0,0,0,0,0,0,0,0,0,0,0,0,0,0,0,0,0,0,0,0,0],"sum_hessian":[2.857E3,6.1E2,2.247E3,3.59E2,2.51E2,1.874E3,3.73E2,4.4E1,3.15E2,1.84E2,6.7E1,3.84E2,1.49E3,2.54E2,1.19E2,1.54E2,1.61E2,1.38E2,4.6E1,2.2E1,4.5E1,2.53E2,1.31E2,1.124E3,3.66E2,1.91E2,6.3E1,4.6E1,7.3E1],"tree_param":{"num_deleted":"0","num_feature":"2","num_nodes":"29","size_leaf_vector":"1"}},{"base_weights":[-2.227984E-3,-2.6737028E-1,6.9837935E-2,-3.567812E-1,-1.3857941E-1,2.1151075E-1,-1.4900056E-1,-2.36033E-2,-3.7284732E-1,3.0442622E-1,-2.4163157E-1,1.1552955E-1,1.0923862E0,-6.7100376E-1,4.5464206E-2,-4.090553E-2,-3.022915E-2,-3.5318296E-2,9.767514E-2,-1.1777475E-2,-4.8943467E-2,-1.1079892E-3,3.7125815E-2,1.86651E-1,-7.7346765E-2,-1.7090847E-1,-4.025821E-2,1.2740831E-1,-8.971976E-3],"categories":[],"categories_nodes":[],"categories_segments":[],"categories_sizes":[],"default_left":[0,0,0,0,0,0,0,0,0,0,0,0,0,0,0,0,0,0,0,0,0,0,0,0,0,0,0,0,0],"id":33,"left_children":[1,3,5,7,9,11,13,-1,15,17,19,21,23,25,27,-1,-1,-1,-1,-1,-1,-1,-1,-1,-1,-1,-1,-1,-1],"loss_changes":[5.4628544E1,6.986412E0,6.972731E1,6.103821E-1,1.1578035E1,1.1528111E2,8.976644E1,0E0,6.836281E-1,2.156708E1,6.2342377E0,3.9893383E1,1.9499356E2,6.618638E1,1.0724207E2,0E0,0E0,0E0,0E0,0E0,0E0,0E0,0E0,0E0,0E0,0E0,0E0,0E0,0E0],"parents":[2147483647,0,0,1,1,2,2,3,3,4,4,5,5,6,6,8,8,9,9,10,10,11,11,12,12,13,13,14,14],"right_children":[2,4,6,8,10,12,14,-1,16,18,20,22,24,26,28,-1,-1,-1,-1,-1,-1,-1,-1,-1,-1,-1,-1,-1,-1],"split_conditions":[5E0,3E0,1.7E1,1E0,2E0,1.6E1,2E0,-2.36033E-2,5E0,4E0,5E0,1.3E1,5E0,1.8E1,1.8E1,-4.090553E-2,-3.022915E-2,-3.5318296E-2,9.767514E-2,-1.1777475E-2,-4.8943467E-2,-1.1079892E-3,3.7125815E-2,1.86651E-1,-7.7346765E-2,-1.7090847E-1,-4.025821E-2,1.2740831E-1,-8.971976E-3],"split_indices":[1,1,1,1,0,1,0,0,0,1,0,1,0,1,1,0,0,0,0,0,0,0,0,0,0,0,0,0,0],"split_type":[0,0,0,0,0,0,0,0,0,0,0,0,0,0,0,0,0,0,0,0,0,0,0,0,0,0,0,0,0],"sum_hessian":[2.857E3,6.1E2,2.247E3,3.59E2,2.51E2,1.364E3,8.83E2,4.4E1,3.15E2,4.7E1,2.04E2,1.231E3,1.33E2,2.39E2,6.44E2,2.05E2,1.1E2,2.4E1,2.3E1,1.37E2,6.7E1,8.24E2,4.07E2,9.4E1,3.9E1,4.8E1,1.91E2,6.3E1,5.81E2],"tree_param":{"num_deleted":"0","num_feature":"2","num_nodes":"29","size_leaf_vector":"1"}},{"base_weights":[-2.019371E-3,3.45699E-2,-4.3451846E-1,-1.08256295E-1,2.0505327E-1,-6.376305E-1,-2.416683E-1,-2.2544435E-1,3.046797E-2,4.9577436E-1,-3.283971E-2,-5.128861E-1,-1.05286576E-1,-3.0088025E-1,-1.4101563E-3,1.1933513E-3,-5.762573E-2,4.997569E-2,-2.401758E-2,1.0640892E-1,1.9745318E-2,-6.2999465E-2,1.8303731E-2,-2.1428911E-2,-7.86254E-2,-9.309029E-3,-4.73562E-2],"categories":[],"categories_nodes":[],"categories_segments":[],"categories_sizes":[],"default_left":[0,0,0,0,0,0,0,0,0,0,0,0,0,0,0,0,0,0,0,0,0,0,0,0,0,0,0],"id":34,"left_children":[1,3,5,7,9,11,13,15,17,19,21,23,-1,25,-1,-1,-1,-1,-1,-1,-1,-1,-1,-1,-1,-1,-1],"loss_changes":[4.524238E1,6.420746E1,8.580856E0,2.3335415E1,8.314721E1,5.0542183E0,1.5588188E0,6.4795006E1,8.369269E1,9.15112E1,8.5455086E1,6.7697926E0,0E0,3.2570171E0,0E0,0E0,0E0,0E0,0E0,0E0,0E0,0E0,0E0,0E0,0E0,0E0,0E0],"parents":[2147483647,0,0,1,1,2,2,3,3,4,4,5,5,6,6,7,7,8,8,9,9,10,10,11,11,13,13],"right_children":[2,4,6,8,10,12,14,16,18,20,22,24,-1,26,-1,-1,-1,-1,-1,-1,-1,-1,-1,-1,-1,-1,-1],"split_conditions":[2.2E1,1.3E1,3E0,4E0,1.7E1,2.3E1,2.3E1,9E0,5E0,3E0,2E0,2E0,-1.05286576E-1,4E0,-1.4101563E-3,1.1933513E-3,-5.762573E-2,4.997569E-2,-2.401758E-2,1.0640892E-1,1.9745318E-2,-6.2999465E-2,1.8303731E-2,-2.1428911E-2,-7.86254E-2,-9.309029E-3,-4.73562E-2],"split_indices":[1,1,0,0,1,1,1,1,0,0,0,0,0,0,0,0,0,0,0,0,0,0,0,0,0,0,0],"split_type":[0,0,0,0,0,0,0,0,0,0,0,0,0,0,0,0,0,0,0,0,0,0,0,0,0,0,0],"sum_hessian":[2.857E3,2.635E3,2.22E2,1.434E3,1.201E3,1.07E2,1.15E2,7.77E2,6.57E2,5.4E2,6.61E2,8.4E1,2.3E1,9.1E1,2.4E1,4.64E2,3.13E2,2.4E2,4.17E2,1.85E2,3.55E2,1.75E2,4.86E2,4.1E1,4.3E1,4.2E1,4.9E1],"tree_param":{"num_deleted":"0","num_feature":"2","num_nodes":"27","size_leaf_vector":"1"}},{"base_weights":[-1.891817E-3,-2.4087152E-1,6.3063025E-2,-3.19139E-1,-1.2810501E-1,-5.9622E-2,2.6076776E-1,-3.6134565E-1,-2.4438515E-1,2.7411398E-1,-2.2165823E-1,6.259417E-1,-1.3825442E-1,5.365214E-1,-1.1187211E-1,-2.7020952E-2,-4.221268E-2,-1.6885241E-2,-2.7982999E-2,-3.2042272E-2,8.820017E-2,-1.2352746E-2,-4.175463E-2,9.1280244E-2,4.7599107E-2,-7.841639E-2,-5.9714816E-3,8.878379E-2,-4.686536E-3,-8.030668E-2,3.126605E-3],"categories":[],"categories_nodes":[],"categories_segments":[],"categories_sizes":[],"default_left":[0,0,0,0,0,0,0,0,0,0,0,0,0,0,0,0,0,0,0,0,0,0,0,0,0,0,0,0,0,0,0],"id":35,"left_children":[1,3,5,7,9,11,13,15,17,19,21,23,25,27,29,-1,-1,-1,-1,-1,-1,-1,-1,-1,-1,-1,-1,-1,-1,-1,-1],"loss_changes":[4.437961E1,5.351776E0,5.4541706E1,1.047535E0,9.543238E0,7.491019E1,8.8533646E1,1.1489105E0,3.0882263E-1,1.7630365E1,3.8890638E0,5.716652E0,6.3162086E1,1.0149353E2,3.633474E1,0E0,0E0,0E0,0E0,0E0,0E0,0E0,0E0,0E0,0E0,0E0,0E0,0E0,0E0,0E0,0E0],"parents":[2147483647,0,0,1,1,2,2,3,3,4,4,5,5,6,6,7,7,8,8,9,9,10,10,11,11,12,12,13,13,14,14],"right_children":[2,4,6,8,10,12,14,16,18,20,22,24,26,28,30,-1,-1,-1,-1,-1,-1,-1,-1,-1,-1,-1,-1,-1,-1,-1,-1],"split_conditions":[5E0,3E0,4E0,5E0,2E0,9E0,5E0,2E0,7E0,4E0,5E0,7E0,1E1,1.9E1,9E0,-2.7020952E-2,-4.221268E-2,-1.6885241E-2,-2.7982999E-2,-3.2042272E-2,8.820017E-2,-1.2352746E-2,-4.175463E-2,9.1280244E-2,4.7599107E-2,-7.841639E-2,-5.9714816E-3,8.878379E-2,-4.686536E-3,-8.030668E-2,3.126605E-3],"split_indices":[1,1,0,0,0,1,0,0,0,1,0,1,1,1,1,0,0,0,0,0,0,0,0,0,0,0,0,0,0,0,0],"split_type":[0,0,0,0,0,0,0,0,0,0,0,0,0,0,0,0,0,0,0,0,0,0,0,0,0,0,0,0,0,0,0],"sum_hessian":[2.857E3,6.1E2,2.247E3,3.59E2,2.51E2,1.387E3,8.6E2,2.27E2,1.32E2,4.7E1,2.04E2,1.42E2,1.245E3,4.94E2,3.66E2,9.3E1,1.34E2,4.4E1,8.8E1,2.4E1,2.3E1,1.37E2,6.7E1,4.7E1,9.5E1,1.34E2,1.111E3,3.08E2,1.86E2,6.2E1,3.04E2],"tree_param":{"num_deleted":"0","num_feature":"2","num_nodes":"31","size_leaf_vector":"1"}},{"base_weights":[-1.7200905E-3,-2.1696763E-1,5.6784343E-2,-2.87542E-1,-1.1528613E-1,1.05572864E-1,-3.8672385E-1,-3.2551476E-1,-2.2028387E-1,2.4787295E-1,-1.9975613E-1,-7.6833805E-3,2.8351563E-1,-5.698527E-1,-2.1289073E-1,-2.4347609E-2,-3.802268E-2,-1.5234239E-2,-2.5216121E-2,-2.8966187E-2,7.97477E-2,1.8773332E-2,-2.4736542E-2,5.643183E-2,-8.223995E-3,6.1715335E-2,-1.0089479E-2,-4.5687355E-2,-9.462435E-2,-2.6618598E-2,-8.248673E-4],"categories":[],"categories_nodes":[],"categories_segments":[],"categories_sizes":[],"default_left":[0,0,0,0,0,0,0,0,0,0,0,0,0,0,0,0,0,0,0,0,0,0,0,0,0,0,0,0,0,0,0],"id":36,"left_children":[1,3,5,7,9,11,13,15,17,19,21,23,25,27,29,-1,-1,-1,-1,-1,-1,-1,-1,-1,-1,-1,-1,-1,-1,-1,-1],"loss_changes":[3.600293E1,4.35145E0,4.8683296E1,8.477268E-1,7.7798786E0,4.0832424E1,6.9776306E0,9.308014E-1,2.4963522E-1,1.4411702E1,3.8282995E0,5.2885403E1,1.0112629E2,4.1603127E0,1.2629519E0,0E0,0E0,0E0,0E0,0E0,0E0,0E0,0E0,0E0,0E0,0E0,0E0,0E0,0E0,0E0,0E0],"parents":[2147483647,0,0,1,1,2,2,3,3,4,4,5,5,6,6,7,7,8,8,9,9,10,10,11,11,12,12,13,13,14,14],"right_children":[2,4,6,8,10,12,14,16,18,20,22,24,26,28,30,-1,-1,-1,-1,-1,-1,-1,-1,-1,-1,-1,-1,-1,-1,-1,-1],"split_conditions":[5E0,3E0,2.2E1,5E0,2E0,4E0,3E0,2E0,7E0,4E0,4E0,9E0,5E0,2.3E1,2.3E1,-2.4347609E-2,-3.802268E-2,-1.5234239E-2,-2.5216121E-2,-2.8966187E-2,7.97477E-2,1.8773332E-2,-2.4736542E-2,5.643183E-2,-8.223995E-3,6.1715335E-2,-1.0089479E-2,-4.5687355E-2,-9.462435E-2,-2.6618598E-2,-8.248673E-4],"split_indices":[1,1,1,0,0,0,0,0,0,1,1,1,0,1,1,0,0,0,0,0,0,0,0,0,0,0,0,0,0,0,0],"split_type":[0,0,0,0,0,0,0,0,0,0,0,0,0,0,0,0,0,0,0,0,0,0,0,0,0,0,0,0,0,0,0],"sum_hessian":[2.857E3,6.1E2,2.247E3,3.59E2,2.51E2,2.025E3,2.22E2,2.27E2,1.32E2,4.7E1,2.04E2,1.238E3,7.87E2,1.07E2,1.15E2,9.3E1,1.34E2,4.4E1,8.8E1,2.4E1,2.3E1,2.2E1,1.82E2,1.42E2,1.096E3,4.21E2,3.66E2,8.4E1,2.3E1,9.1E1,2.4E1],"tree_param":{"num_deleted":"0","num_feature":"2","num_nodes":"31","size_leaf_vector":"1"}},{"base_weights":[-1.5921412E-3,-1.953659E-1,5.1075727E-2,-2.590734E-1,-1.0357994E-1,1.597974E-1,-1.1686111E-1,-2.9323685E-1,-1.9855957E-1,-6.522617E-3,-3.6610973E-1,7.869185E-2,9.042918E-1,-5.162788E-1,3.1940605E-2,-1.043297E-2,-3.1290498E-2,-1.3744644E-2,-2.2722846E-2,-1.3283731E-2,3.6718514E-2,1.6977591E-2,-6.260937E-2,-1.3794382E-3,2.6551157E-2,1.574692E-1,-7.105161E-2,-1.2617911E-1,-1.9560918E-2,1.1446225E-1,-9.047104E-3],"categories":[],"categories_nodes":[],"categories_segments":[],"categories_sizes":[],"default_left":[0,0,0,0,0,0,0,0,0,0,0,0,0,0,0,0,0,0,0,0,0,0,0,0,0,0,0,0,0,0,0],"id":37,"left_children":[1,3,5,7,9,11,13,15,17,19,21,23,25,27,29,-1,-1,-1,-1,-1,-1,-1,-1,-1,-1,-1,-1,-1,-1,-1,-1],"loss_changes":[2.917773E1,3.5459595E0,4.10635E1,6.860275E-1,6.4186826E0,8.2351135E1,5.2556175E1,8.144741E-1,2.0179033E-1,8.781661E0,9.580167E0,2.1290466E1,1.461829E2,5.7128334E1,8.795592E1,0E0,0E0,0E0,0E0,0E0,0E0,0E0,0E0,0E0,0E0,0E0,0E0,0E0,0E0,0E0,0E0],"parents":[2147483647,0,0,1,1,2,2,3,3,4,4,5,5,6,6,7,7,8,8,9,9,10,10,11,11,12,12,13,13,14,14],"right_children":[2,4,6,8,10,12,14,16,18,20,22,24,26,28,30,-1,-1,-1,-1,-1,-1,-1,-1,-1,-1,-1,-1,-1,-1,-1,-1],"split_conditions":[5E0,3E0,1.7E1,5E0,5E0,1.6E1,2E0,1E0,7E0,4E0,4E0,1.3E1,5E0,1.9E1,1.8E1,-1.043297E-2,-3.1290498E-2,-1.3744644E-2,-2.2722846E-2,-1.3283731E-2,3.6718514E-2,1.6977591E-2,-6.260937E-2,-1.3794382E-3,2.6551157E-2,1.574692E-1,-7.105161E-2,-1.2617911E-1,-1.9560918E-2,1.1446225E-1,-9.047104E-3],"split_indices":[1,1,1,0,0,1,0,1,0,0,1,1,0,1,1,0,0,0,0,0,0,0,0,0,0,0,0,0,0,0,0],"split_type":[0,0,0,0,0,0,0,0,0,0,0,0,0,0,0,0,0,0,0,0,0,0,0,0,0,0,0,0,0,0,0],"sum_hessian":[2.857E3,6.1E2,2.247E3,3.59E2,2.51E2,1.364E3,8.83E2,2.27E2,1.32E2,1.84E2,6.7E1,1.231E3,1.33E2,2.39E2,6.44E2,2.2E1,2.05E2,4.4E1,8.8E1,1.38E2,4.6E1,2.2E1,4.5E1,8.24E2,4.07E2,9.4E1,3.9E1,7.1E1,1.68E2,6.3E1,5.81E2],"tree_param":{"num_deleted":"0","num_feature":"2","num_nodes":"31","size_leaf_vector":"1"}},{"base_weights":[-1.4430701E-3,2.6926244E-2,-3.3677968E-1,-1.1480869E-1,1.3384606E-1,-4.9897307E-1,-1.828688E-1,-5.7806242E-2,-2.9265344E-1,6.014977E-3,3.6114272E-1,-3.9771184E-1,-8.3681606E-2,-4.3329373E-3,-2.614813E-1,6.9190906E-3,-3.4793403E-2,-7.790675E-2,6.676307E-2,1.5596168E-2,-2.943643E-2,7.468772E-2,-2.3635864E-2,-1.2384664E-2,-6.500897E-2,-3.8760677E-2,1.2288666E-4],"categories":[],"categories_nodes":[],"categories_segments":[],"categories_sizes":[],"default_left":[0,0,0,0,0,0,0,0,0,0,0,0,0,0,0,0,0,0,0,0,0,0,0,0,0,0,0],"id":38,"left_children":[1,3,5,7,9,11,13,15,17,19,21,23,-1,-1,25,-1,-1,-1,-1,-1,-1,-1,-1,-1,-1,-1,-1],"loss_changes":[2.7197994E1,3.9962032E1,5.4755764E0,1.1479106E1,4.3668365E1,3.361908E0,1.2611372E0,3.1711123E1,1.2897145E2,4.342028E1,1.2486453E2,5.7944765E0,0E0,0E0,2.452425E0,0E0,0E0,0E0,0E0,0E0,0E0,0E0,0E0,0E0,0E0,0E0,0E0],"parents":[2147483647,0,0,1,1,2,2,3,3,4,4,5,5,6,6,7,7,8,8,9,9,10,10,11,11,14,14],"right_children":[2,4,6,8,10,12,14,16,18,20,22,24,-1,-1,26,-1,-1,-1,-1,-1,-1,-1,-1,-1,-1,-1,-1],"split_conditions":[2.2E1,1.1E1,3E0,9E0,4E0,2.3E1,4E0,5E0,5E0,3E0,5E0,2E0,-8.3681606E-2,-4.3329373E-3,2.3E1,6.9190906E-3,-3.4793403E-2,-7.790675E-2,6.676307E-2,1.5596168E-2,-2.943643E-2,7.468772E-2,-2.3635864E-2,-1.2384664E-2,-6.500897E-2,-3.8760677E-2,1.2288666E-4],"split_indices":[1,1,0,1,0,1,0,0,0,0,0,0,0,0,1,0,0,0,0,0,0,0,0,0,0,0,0],"split_type":[0,0,0,0,0,0,0,0,0,0,0,0,0,0,0,0,0,0,0,0,0,0,0,0,0,0,0],"sum_hessian":[2.857E3,2.635E3,2.22E2,1.133E3,1.502E3,1.07E2,1.15E2,8.59E2,2.74E2,9.62E2,5.4E2,8.4E1,2.3E1,4.2E1,7.3E1,5.98E2,2.61E2,1.82E2,9.2E1,6.42E2,3.2E2,3.28E2,2.12E2,4.1E1,4.3E1,4.9E1,2.4E1],"tree_param":{"num_deleted":"0","num_feature":"2","num_nodes":"27","size_leaf_vector":"1"}},{"base_weights":[-1.3708828E-3,3.308463E-2,-2.3030291E-1,-7.477318E-2,1.8031858E-1,-1.11874886E-1,-3.5329682E-1,-2.3015457E-1,1.4049425E-2,3.7265587E-1,-2.3663398E-2,3.1977963E-1,-4.505671E-1,-8.691951E-1,-7.5206906E-2,5.9087933E-3,-7.037589E-2,-1.0310209E-2,4.5512494E-2,9.135595E-2,8.900213E-3,-5.087615E-2,1.4490664E-2,-4.877715E-2,1.1983168E-1,-3.5885103E-2,-7.566213E-2,-2.4521506E-1,-3.9097066E-3,1.7932858E-2,-2.3585504E-2],"categories":[],"categories_nodes":[],"categories_segments":[],"categories_sizes":[],"default_left":[0,0,0,0,0,0,0,0,0,0,0,0,0,0,0,0,0,0,0,0,0,0,0,0,0,0,0,0,0,0,0],"id":39,"left_children":[1,3,5,7,9,11,13,15,17,19,21,23,25,27,29,-1,-1,-1,-1,-1,-1,-1,-1,-1,-1,-1,-1,-1,-1,-1,-1],"loss_changes":[2.2551441E1,3.9476105E1,5.4081306E0,1.9808212E1,4.1243057E1,2.8214104E1,2.6188929E1,7.154854E1,4.727574E1,8.2923965E1,4.185973E1,6.0888916E1,2.7600536E0,8.4000656E1,4.949173E0,0E0,0E0,0E0,0E0,0E0,0E0,0E0,0E0,0E0,0E0,0E0,0E0,0E0,0E0,0E0,0E0],"parents":[2147483647,0,0,1,1,2,2,3,3,4,4,5,5,6,6,7,7,8,8,9,9,10,10,11,11,12,12,13,13,14,14],"right_children":[2,4,6,8,10,12,14,16,18,20,22,24,26,28,30,-1,-1,-1,-1,-1,-1,-1,-1,-1,-1,-1,-1,-1,-1,-1,-1],"split_conditions":[2.1E1,1.3E1,3E0,3E0,1.7E1,2.2E1,4E0,9E0,1.1E1,3E0,2E0,2E0,2.3E1,2.2E1,2.2E1,5.9087933E-3,-7.037589E-2,-1.0310209E-2,4.5512494E-2,9.135595E-2,8.900213E-3,-5.087615E-2,1.4490664E-2,-4.877715E-2,1.1983168E-1,-3.5885103E-2,-7.566213E-2,-2.4521506E-1,-3.9097066E-3,1.7932858E-2,-2.3585504E-2],"split_indices":[1,1,0,0,1,1,0,1,1,0,0,0,1,1,1,0,0,0,0,0,0,0,0,0,0,0,0,0,0,0,0],"split_type":[0,0,0,0,0,0,0,0,0,0,0,0,0,0,0,0,0,0,0,0,0,0,0,0,0,0,0,0,0,0,0],"sum_hessian":[2.857E3,2.484E3,3.73E2,1.434E3,1.05E3,1.91E2,1.82E2,5.21E2,9.13E2,5.4E2,5.1E2,8.4E1,1.07E2,6.3E1,1.19E2,3.24E2,1.97E2,7.22E2,1.91E2,1.85E2,3.55E2,1.31E2,3.79E2,4.4E1,4E1,8.4E1,2.3E1,2.1E1,4.2E1,4.6E1,7.3E1],"tree_param":{"num_deleted":"0","num_feature":"2","num_nodes":"31","size_leaf_vector":"1"}},{"base_weights":[-1.3249485E-3,-1.6512781E-1,4.3196794E-2,-2.209243E-1,-8.4763266E-2,1.3614707E-1,-1.0037824E-1,-2.7053672E-1,-1.3421337E-1,2.2458965E-1,-1.5678364E-1,6.65917E-2,7.746252E-1,-4.164016E-1,1.736747E-2,-2.011213E-2,-3.1686645E-2,-7.990582E-3,-1.6016424E-2,-2.6141688E-2,7.214885E-2,-3.0908352E-2,-3.2499682E-3,5.285364E-2,3.7463643E-3,1.3565753E-1,-6.268721E-2,-1.3078801E-1,-1.867201E-2,1.01851605E-1,-9.275432E-3],"categories":[],"categories_nodes":[],"categories_segments":[],"categories_sizes":[],"default_left":[0,0,0,0,0,0,0,0,0,0,0,0,0,0,0,0,0,0,0,0,0,0,0,0,0,0,0,0,0,0,0],"id":40,"left_children":[1,3,5,7,9,11,13,15,17,19,21,23,25,27,29,-1,-1,-1,-1,-1,-1,-1,-1,-1,-1,-1,-1,-1,-1,-1,-1],"loss_changes":[2.0849924E1,2.721033E0,3.0013987E1,1.5123882E0,5.6496997E0,6.0567497E1,3.2901215E1,6.695194E-1,1.7464256E-1,1.1780424E1,3.8702826E0,1.6557438E1,1.10141014E2,4.889725E1,7.1204605E1,0E0,0E0,0E0,0E0,0E0,0E0,0E0,0E0,0E0,0E0,0E0,0E0,0E0,0E0,0E0,0E0],"parents":[2147483647,0,0,1,1,2,2,3,3,4,4,5,5,6,6,7,7,8,8,9,9,10,10,11,11,12,12,13,13,14,14],"right_children":[2,4,6,8,10,12,14,16,18,20,22,24,26,28,30,-1,-1,-1,-1,-1,-1,-1,-1,-1,-1,-1,-1,-1,-1,-1,-1],"split_conditions":[5E0,3E0,1.7E1,5E0,2E0,1.6E1,2E0,2E0,7E0,4E0,4E0,7E0,5E0,1.8E1,1.8E1,-2.011213E-2,-3.1686645E-2,-7.990582E-3,-1.6016424E-2,-2.6141688E-2,7.214885E-2,-3.0908352E-2,-3.2499682E-3,5.285364E-2,3.7463643E-3,1.3565753E-1,-6.268721E-2,-1.3078801E-1,-1.867201E-2,1.01851605E-1,-9.275432E-3],"split_indices":[1,1,1,0,0,1,0,0,0,1,0,1,0,1,1,0,0,0,0,0,0,0,0,0,0,0,0,0,0,0,0],"split_type":[0,0,0,0,0,0,0,0,0,0,0,0,0,0,0,0,0,0,0,0,0,0,0,0,0,0,0,0,0,0,0],"sum_hessian":[2.857E3,6.1E2,2.247E3,3.59E2,2.51E2,1.364E3,8.83E2,2.27E2,1.32E2,4.7E1,2.04E2,1.231E3,1.33E2,2.39E2,6.44E2,9.3E1,1.34E2,4.4E1,8.8E1,2.4E1,2.3E1,9.1E1,1.13E2,7.2E1,1.159E3,9.4E1,3.9E1,4.8E1,1.91E2,6.3E1,5.81E2],"tree_param":{"num_deleted":"0","num_feature":"2","num_nodes":"31","size_leaf_vector":"1"}},{"base_weights":[-1.1893127E-3,-6.923896E-2,1.0008666E-1,3.9955354E-3,-2.2370444E-1,3.1692266E-1,-1.23822026E-1,-2.0677054E-1,1.7589538E-1,-1.5052779E-1,-7.770376E-1,5.0712085E-1,-8.957894E-2,-3.010223E-1,2.8801864E-2,-1.2920903E-2,-1.8107884E-1,8.019476E-2,-8.041584E-3,-4.293784E-3,-2.695758E-2,-2.2092275E-1,-2.6218726E-3,2.2049373E-2,1.4716707E-1,-1.4884438E-3,-2.0343833E-2,-1.5277012E-2,-1.17090955E-1,1.5214594E-1,-2.3539446E-2],"categories":[],"categories_nodes":[],"categories_segments":[],"categories_sizes":[],"default_left":[0,0,0,0,0,0,0,0,0,0,0,0,0,0,0,0,0,0,0,0,0,0,0,0,0,0,0,0,0,0,0],"id":41,"left_children":[1,3,5,7,9,11,13,15,17,19,21,23,25,27,29,-1,-1,-1,-1,-1,-1,-1,-1,-1,-1,-1,-1,-1,-1,-1,-1],"loss_changes":[1.970368E1,1.9344757E1,5.582487E1,4.2100163E1,2.2153124E1,4.519789E1,1.5316135E1,6.470806E1,1.02761566E2,6.226101E0,6.876225E1,1.09709045E2,1.5873455E0,3.3609337E1,1.2063629E2,0E0,0E0,0E0,0E0,0E0,0E0,0E0,0E0,0E0,0E0,0E0,0E0,0E0,0E0,0E0,0E0],"parents":[2147483647,0,0,1,1,2,2,3,3,4,4,5,5,6,6,7,7,8,8,9,9,10,10,11,11,12,12,13,13,14,14],"right_children":[2,4,6,8,10,12,14,16,18,20,22,24,26,28,30,-1,-1,-1,-1,-1,-1,-1,-1,-1,-1,-1,-1,-1,-1,-1,-1],"split_conditions":[4E0,3E0,5E0,1.3E1,2.1E1,1.9E1,9E0,1.2E1,1.7E1,1.3E1,2.2E1,1.6E1,2.2E1,6E0,1E1,-1.2920903E-2,-1.8107884E-1,8.019476E-2,-8.041584E-3,-4.293784E-3,-2.695758E-2,-2.2092275E-1,-2.6218726E-3,2.2049373E-2,1.4716707E-1,-1.4884438E-3,-2.0343833E-2,-1.5277012E-2,-1.17090955E-1,1.5214594E-1,-2.3539446E-2],"split_indices":[0,0,0,1,1,1,1,1,1,1,1,1,1,1,1,0,0,0,0,0,0,0,0,0,0,0,0,0,0,0,0],"split_type":[0,0,0,0,0,0,0,0,0,0,0,0,0,0,0,0,0,0,0,0,0,0,0,0,0,0,0,0,0,0,0],"sum_hessian":[2.857E3,1.709E3,1.148E3,1.16E3,5.49E2,5.83E2,5.65E2,5.21E2,6.39E2,4.86E2,6.3E1,3.97E2,1.86E2,2.61E2,3.04E2,4.98E2,2.3E1,1.85E2,4.54E2,2.56E2,2.3E2,2.1E1,4.2E1,3.07E2,9E1,1.13E2,7.3E1,2.24E2,3.7E1,4.5E1,2.59E2],"tree_param":{"num_deleted":"0","num_feature":"2","num_nodes":"31","size_leaf_vector":"1"}},{"base_weights":[-1.1519673E-3,-6.253539E-2,9.020295E-2,3.4908915E-3,-2.0179716E-1,2.8548297E-1,-1.11446775E-1,-1.8646541E-1,1.5841855E-1,-1.3553903E-1,-7.02827E-1,4.568342E-1,-8.073767E-2,-2.7142534E-1,2.6342824E-2,6.9139646E-3,-6.0507745E-2,7.2218426E-2,-7.2392076E-3,-3.8661037E-3,-2.4273429E-2,-1.9983469E-1,-2.3658043E-3,-7.5243176E-3,9.05507E-2,-1.3408804E-3,-1.8336948E-2,-1.3756111E-2,-1.05689965E-1,1.3726215E-1,-2.1194626E-2],"categories":[],"categories_nodes":[],"categories_segments":[],"categories_sizes":[],"default_left":[0,0,0,0,0,0,0,0,0,0,0,0,0,0,0,0,0,0,0,0,0,0,0,0,0,0,0,0,0,0,0],"id":42,"left_children":[1,3,5,7,9,11,13,15,17,19,21,23,25,27,29,-1,-1,-1,-1,-1,-1,-1,-1,-1,-1,-1,-1,-1,-1,-1,-1],"loss_changes":[1.6032383E1,1.5724045E1,4.527733E1,3.419717E1,1.8163256E1,3.6684258E1,1.2483703E1,5.5895496E1,8.333107E1,5.0480423E0,5.626485E1,9.508211E1,1.2897269E0,2.74031E1,9.813597E1,0E0,0E0,0E0,0E0,0E0,0E0,0E0,0E0,0E0,0E0,0E0,0E0,0E0,0E0,0E0,0E0],"parents":[2147483647,0,0,1,1,2,2,3,3,4,4,5,5,6,6,7,7,8,8,9,9,10,10,11,11,12,12,13,13,14,14],"right_children":[2,4,6,8,10,12,14,16,18,20,22,24,26,28,30,-1,-1,-1,-1,-1,-1,-1,-1,-1,-1,-1,-1,-1,-1,-1,-1],"split_conditions":[4E0,3E0,5E0,1.3E1,2.1E1,1.9E1,9E0,9E0,1.7E1,1.3E1,2.2E1,1E1,2.2E1,6E0,1E1,6.9139646E-3,-6.0507745E-2,7.2218426E-2,-7.2392076E-3,-3.8661037E-3,-2.4273429E-2,-1.9983469E-1,-2.3658043E-3,-7.5243176E-3,9.05507E-2,-1.3408804E-3,-1.8336948E-2,-1.3756111E-2,-1.05689965E-1,1.3726215E-1,-2.1194626E-2],"split_indices":[0,0,0,1,1,1,1,1,1,1,1,1,1,1,1,0,0,0,0,0,0,0,0,0,0,0,0,0,0,0,0],"split_type":[0,0,0,0,0,0,0,0,0,0,0,0,0,0,0,0,0,0,0,0,0,0,0,0,0,0,0,0,0,0,0],"sum_hessian":[2.857E3,1.709E3,1.148E3,1.16E3,5.49E2,5.83E2,5.65E2,5.21E2,6.39E2,4.86E2,6.3E1,3.97E2,1.86E2,2.61E2,3.04E2,3.24E2,1.97E2,1.85E2,4.54E2,2.56E2,2.3E2,2.1E1,4.2E1,1.82E2,2.15E2,1.13E2,7.3E1,2.24E2,3.7E1,4.5E1,2.59E2],"tree_param":{"num_deleted":"0","num_feature":"2","num_nodes":"31","size_leaf_vector":"1"}},{"base_weights":[-1.0925162E-3,-1.3788955E-1,3.6089014E-2,-2.2306672E-1,-9.6513905E-2,6.6611335E-2,-2.4137422E-1,-2.7370033E-1,-4.370502E-2,-4.7687445E-2,-1.7664668E-1,-1.0479315E-1,1.1258499E-1,-3.7664616E-1,-1.1335056E-1,-7.0565804E-3,-3.0677095E-2,-9.131379E-3,5.803979E-4,-1.2976131E-2,3.2353267E-2,-4.5553143E-3,-4.8914094E-2,9.454982E-3,-3.918859E-2,3.1425677E-2,4.610569E-3,-2.9458845E-2,-6.515737E-2,-1.618852E-2,6.979088E-3],"categories":[],"categories_nodes":[],"categories_segments":[],"categories_sizes":[],"default_left":[0,0,0,0,0,0,0,0,0,0,0,0,0,0,0,0,0,0,0,0,0,0,0,0,0,0,0,0,0,0,0],"id":43,"left_children":[1,3,5,7,9,11,13,15,17,19,21,23,25,27,29,-1,-1,-1,-1,-1,-1,-1,-1,-1,-1,-1,-1,-1,-1,-1,-1],"loss_changes":[1.4541689E1,2.131795E0,1.9053988E1,1.7953014E0,1.60748E0,1.5976865E1,3.8192225E0,1.0196095E0,1.0659782E-1,7.902589E0,6.3684096E0,2.4588688E1,2.1409895E1,2.244525E0,1.0423874E0,0E0,0E0,0E0,0E0,0E0,0E0,0E0,0E0,0E0,0E0,0E0,0E0,0E0,0E0,0E0,0E0],"parents":[2147483647,0,0,1,1,2,2,3,3,4,4,5,5,6,6,7,7,8,8,9,9,10,10,11,11,12,12,13,13,14,14],"right_children":[2,4,6,8,10,12,14,16,18,20,22,24,26,28,30,-1,-1,-1,-1,-1,-1,-1,-1,-1,-1,-1,-1,-1,-1,-1,-1],"split_conditions":[5E0,2E0,2.2E1,5E0,5E0,2E0,3E0,1E0,1E0,4E0,4E0,1.7E1,3E0,2.3E1,2.3E1,-7.0565804E-3,-3.0677095E-2,-9.131379E-3,5.803979E-4,-1.2976131E-2,3.2353267E-2,-4.5553143E-3,-4.8914094E-2,9.454982E-3,-3.918859E-2,3.1425677E-2,4.610569E-3,-2.9458845E-2,-6.515737E-2,-1.618852E-2,6.979088E-3],"split_indices":[1,1,1,0,0,0,0,1,1,0,1,1,0,1,1,0,0,0,0,0,0,0,0,0,0,0,0,0,0,0,0],"split_type":[0,0,0,0,0,0,0,0,0,0,0,0,0,0,0,0,0,0,0,0,0,0,0,0,0,0,0,0,0,0,0],"sum_hessian":[2.857E3,6.1E2,2.247E3,1.98E2,4.12E2,2.025E3,2.22E2,1.54E2,4.4E1,2.57E2,1.55E2,4.28E2,1.597E3,1.07E2,1.15E2,2.2E1,1.32E2,2.2E1,2.2E1,2.11E2,4.6E1,1.1E2,4.5E1,2.53E2,1.75E2,3.95E2,1.202E3,8.4E1,2.3E1,9.1E1,2.4E1],"tree_param":{"num_deleted":"0","num_feature":"2","num_nodes":"31","size_leaf_vector":"1"}},{"base_weights":[-1.0453863E-3,-5.61667E-2,8.098985E-2,2.8425704E-3,-1.8062778E-1,2.545013E-1,-9.818272E-2,-1.7186458E-1,1.4533365E-1,-1.21649556E-1,-6.2659293E-1,4.073665E-1,-7.220911E-2,-1.5380143E-1,2.0980762E-1,-1.0339356E-2,-1.5883303E-1,6.3031964E-2,-5.324378E-3,-2.99384E-3,-2.2315657E-2,-1.811997E-1,-5.5352703E-4,1.6240068E-2,1.232005E-1,-1.6650275E-3,-1.5682397E-2,-9.013324E-3,-8.156237E-2,8.191367E-2,-5.2663244E-2],"categories":[],"categories_nodes":[],"categories_segments":[],"categories_sizes":[],"default_left":[0,0,0,0,0,0,0,0,0,0,0,0,0,0,0,0,0,0,0,0,0,0,0,0,0,0,0,0,0,0,0],"id":44,"left_children":[1,3,5,7,9,11,13,15,17,19,21,23,25,27,29,-1,-1,-1,-1,-1,-1,-1,-1,-1,-1,-1,-1,-1,-1,-1,-1],"loss_changes":[1.2928111E1,1.2559365E1,3.5745667E1,2.8927155E1,1.4390007E1,2.9195919E1,9.727861E0,5.0462914E1,6.167021E1,4.526961E0,4.7107048E1,8.01992E1,8.7649506E-1,2.0152258E1,3.9471268E1,0E0,0E0,0E0,0E0,0E0,0E0,0E0,0E0,0E0,0E0,0E0,0E0,0E0,0E0,0E0,0E0],"parents":[2147483647,0,0,1,1,2,2,3,3,4,4,5,5,6,6,7,7,8,8,9,9,10,10,11,11,12,12,13,13,14,14],"right_children":[2,4,6,8,10,12,14,16,18,20,22,24,26,28,30,-1,-1,-1,-1,-1,-1,-1,-1,-1,-1,-1,-1,-1,-1,-1,-1],"split_conditions":[4E0,3E0,5E0,1.3E1,2.1E1,1.9E1,1.5E1,1.2E1,1.7E1,1.3E1,2.2E1,1.6E1,2.2E1,1.4E1,1.6E1,-1.0339356E-2,-1.5883303E-1,6.3031964E-2,-5.324378E-3,-2.99384E-3,-2.2315657E-2,-1.811997E-1,-5.5352703E-4,1.6240068E-2,1.232005E-1,-1.6650275E-3,-1.5682397E-2,-9.013324E-3,-8.156237E-2,8.191367E-2,-5.2663244E-2],"split_indices":[0,0,0,1,1,1,1,1,1,1,1,1,1,1,1,0,0,0,0,0,0,0,0,0,0,0,0,0,0,0,0],"split_type":[0,0,0,0,0,0,0,0,0,0,0,0,0,0,0,0,0,0,0,0,0,0,0,0,0,0,0,0,0,0,0],"sum_hessian":[2.857E3,1.709E3,1.148E3,1.16E3,5.49E2,5.83E2,5.65E2,5.21E2,6.39E2,4.86E2,6.3E1,3.97E2,1.86E2,4.79E2,8.6E1,4.98E2,2.3E1,1.85E2,4.54E2,2.56E2,2.3E2,2.1E1,4.2E1,3.07E2,9E1,1.13E2,7.3E1,4.38E2,4.1E1,4.7E1,3.9E1],"tree_param":{"num_deleted":"0","num_feature":"2","num_nodes":"31","size_leaf_vector":"1"}},{"base_weights":[-1.0308059E-3,-1.6512872E-1,2.2609163E-2,-2.1477242E-1,-7.878369E-2,4.537117E-2,-2.0990968E-1,-1.4844659E-2,-2.5936395E-1,-3.0711588E-2,-1.022046E-2,-9.044384E-3,1.284842E-1,-3.345826E-1,-9.202533E-2,-5.392644E-3,-2.9888341E-2,-7.3958086E-3,1.3870198E-3,7.526647E-3,-1.7618658E-2,3.31969E-2,-9.123783E-3,-2.602145E-2,-5.8402862E-2,-1.3726731E-2,7.814613E-3],"categories":[],"categories_nodes":[],"categories_segments":[],"categories_sizes":[],"default_left":[0,0,0,0,0,0,0,0,0,0,0,0,0,0,0,0,0,0,0,0,0,0,0,0,0,0,0],"id":45,"left_children":[1,3,5,7,9,11,13,-1,15,17,-1,19,21,23,25,-1,-1,-1,-1,-1,-1,-1,-1,-1,-1,-1,-1],"loss_changes":[1.1090688E1,1.5262146E0,1.3235721E1,6.3582325E-1,1.4660478E-1,1.0299217E1,3.2466393E0,0E0,1.079917E0,8.7786086E-2,0E0,1.9417807E1,4.0314075E1,1.8515148E0,9.037983E-1,0E0,0E0,0E0,0E0,0E0,0E0,0E0,0E0,0E0,0E0,0E0,0E0],"parents":[2147483647,0,0,1,1,2,2,3,3,4,4,5,5,6,6,8,8,9,9,11,11,12,12,13,13,14,14],"right_children":[2,4,6,8,10,12,14,-1,16,18,-1,20,22,24,26,-1,-1,-1,-1,-1,-1,-1,-1,-1,-1,-1,-1],"split_conditions":[3E0,5E0,2.2E1,2E0,7E0,4E0,3E0,-1.4844659E-2,1E0,1E0,-1.022046E-2,3E0,5E0,2.3E1,2.3E1,-5.392644E-3,-2.9888341E-2,-7.3958086E-3,1.3870198E-3,7.526647E-3,-1.7618658E-2,3.31969E-2,-9.123783E-3,-2.602145E-2,-5.8402862E-2,-1.3726731E-2,7.814613E-3],"split_indices":[1,0,1,0,0,0,0,0,1,1,0,0,0,1,1,0,0,0,0,0,0,0,0,0,0,0,0],"split_type":[0,0,0,0,0,0,0,0,0,0,0,0,0,0,0,0,0,0,0,0,0,0,0,0,0,0,0],"sum_hessian":[2.857E3,3.59E2,2.498E3,2.27E2,1.32E2,2.276E3,2.22E2,9.3E1,1.34E2,4.4E1,8.8E1,1.376E3,9E2,1.07E2,1.15E2,2.2E1,1.12E2,2.2E1,2.2E1,9.15E2,4.61E2,4.67E2,4.33E2,8.4E1,2.3E1,9.1E1,2.4E1],"tree_param":{"num_deleted":"0","num_feature":"2","num_nodes":"27","size_leaf_vector":"1"}},{"base_weights":[-9.777234E-4,-1.1100419E-1,2.8927593E-2,-1.2771241E-2,-1.4017583E-1,4.8304826E-1,1.3679551E-2,-1.5218922E-1,6.732326E-2,-2.4339758E-1,-7.432892E-2,6.9313735E-1,7.6612765E-3,-4.8310433E-2,1.1309928E-1,-1.33759845E-2,-2.1539612E-2,-4.8768367E-3,-2.6968995E-2,-1.1994465E-3,-1.4837828E-2,6.2805177E-3,1.2240797E-1,3.726211E-2,-8.0702985E-3,2.3927202E-2,-6.9849896E-3],"categories":[],"categories_nodes":[],"categories_segments":[],"categories_sizes":[],"default_left":[0,0,0,0,0,0,0,0,0,0,0,0,0,0,0,0,0,0,0,0,0,0,0,0,0,0,0],"id":46,"left_children":[1,3,5,7,9,11,13,15,-1,17,19,21,-1,23,25,-1,-1,-1,-1,-1,-1,-1,-1,-1,-1,-1,-1],"loss_changes":[9.407105E0,1.7491016E0,1.5559558E1,1.3587878E1,3.183217E0,6.180195E0,1.3416211E1,1.0864258E-1,0E0,9.233074E-1,1.3321942E0,1.5987286E1,0E0,1.8314667E1,1.9314268E1,0E0,0E0,0E0,0E0,0E0,0E0,0E0,0E0,0E0,0E0,0E0,0E0],"parents":[2147483647,0,0,1,1,2,2,3,3,4,4,5,5,6,6,7,7,9,9,10,10,11,11,13,13,14,14],"right_children":[2,4,6,8,10,12,14,16,-1,18,20,22,-1,24,26,-1,-1,-1,-1,-1,-1,-1,-1,-1,-1,-1,-1],"split_conditions":[5E0,2E0,7E0,4E0,4E0,3E0,4E0,3E0,6.732326E-2,1E0,7E0,2E0,7.6612765E-3,9E0,5E0,-1.33759845E-2,-2.1539612E-2,-4.8768367E-3,-2.6968995E-2,-1.1994465E-3,-1.4837828E-2,6.2805177E-3,1.2240797E-1,3.726211E-2,-8.0702985E-3,2.3927202E-2,-6.9849896E-3],"split_indices":[1,0,1,1,0,0,0,1,0,1,0,0,0,1,0,0,0,0,0,0,0,0,0,0,0,0,0],"split_type":[0,0,0,0,0,0,0,0,0,0,0,0,0,0,0,0,0,0,0,0,0,0,0,0,0,0,0],"sum_hessian":[2.857E3,6.1E2,2.247E3,1.4E2,4.7E2,7.2E1,2.175E3,1.17E2,2.3E1,1.82E2,2.88E2,4.7E1,2.5E1,1.34E3,8.35E2,9.3E1,2.4E1,2.2E1,1.6E2,1.57E2,1.31E2,2.2E1,2.5E1,9.5E1,1.245E3,4.94E2,3.41E2],"tree_param":{"num_deleted":"0","num_feature":"2","num_nodes":"27","size_leaf_vector":"1"}},{"base_weights":[-8.216827E-4,1.5331938E-2,-1.9176394E-1,-6.9265485E-2,7.914974E-2,-2.9391053E-1,-9.5008805E-2,-7.8855725E-3,-2.6096535E-1,1.18120685E-1,-1.5742607E-1,-1.7683652E-1,-4.6018098E-2,1.6295677E-3,-1.5840183E-1,-9.992913E-3,2.1710044E-2,-6.518202E-2,5.1094234E-2,1.1348719E-3,4.3028872E-2,-9.541594E-2,3.8040373E-3,2.3653214E-3,-5.2032538E-2,-2.58272E-2,4.767456E-3],"categories":[],"categories_nodes":[],"categories_segments":[],"categories_sizes":[],"default_left":[0,0,0,0,0,0,0,0,0,0,0,0,0,0,0,0,0,0,0,0,0,0,0,0,0,0,0],"id":47,"left_children":[1,3,5,7,9,11,13,15,17,19,21,23,-1,-1,25,-1,-1,-1,-1,-1,-1,-1,-1,-1,-1,-1,-1],"loss_changes":[8.818181E0,1.4236774E1,2.176031E0,1.3341176E1,1.387563E1,2.0209455E0,8.21069E-1,1.7831015E1,8.330161E1,4.3025173E1,3.320778E1,4.488596E0,0E0,0E0,1.5352983E0,0E0,0E0,0E0,0E0,0E0,0E0,0E0,0E0,0E0,0E0,0E0,0E0],"parents":[2147483647,0,0,1,1,2,2,3,3,4,4,5,5,6,6,7,7,8,8,9,9,10,10,11,11,14,14],"right_children":[2,4,6,8,10,12,14,16,18,20,22,24,-1,-1,26,-1,-1,-1,-1,-1,-1,-1,-1,-1,-1,-1,-1],"split_conditions":[2.2E1,1.1E1,3E0,9E0,5E0,2E0,4E0,5E0,5E0,4E0,1.2E1,2.3E1,-4.6018098E-2,1.6295677E-3,2.3E1,-9.992913E-3,2.1710044E-2,-6.518202E-2,5.1094234E-2,1.1348719E-3,4.3028872E-2,-9.541594E-2,3.8040373E-3,2.3653214E-3,-5.2032538E-2,-2.58272E-2,4.767456E-3],"split_indices":[1,1,0,1,0,0,0,1,0,0,1,1,0,0,1,0,0,0,0,0,0,0,0,0,0,0,0],"split_type":[0,0,0,0,0,0,0,0,0,0,0,0,0,0,0,0,0,0,0,0,0,0,0,0,0,0,0],"sum_hessian":[2.857E3,2.635E3,2.22E2,1.133E3,1.502E3,1.07E2,1.15E2,8.59E2,2.74E2,1.29E3,2.12E2,6.4E1,4.3E1,4.2E1,7.3E1,6.1E2,2.49E2,1.82E2,9.2E1,9.62E2,3.28E2,4.1E1,1.71E2,4.1E1,2.3E1,4.9E1,2.4E1],"tree_param":{"num_deleted":"0","num_feature":"2","num_nodes":"27","size_leaf_vector":"1"}},{"base_weights":[-7.972689E-4,1.3779793E-2,-1.731037E-1,-6.234103E-2,7.1203105E-2,-2.654055E-1,-8.5675284E-2,-7.0833517E-3,-2.3492017E-1,1.4975022E-1,-2.8808797E-2,-1.5991707E-1,-4.1520875E-2,1.4704273E-3,-1.4284617E-1,8.034986E-3,-2.0695133E-2,-5.869947E-2,4.6039768E-2,7.487723E-3,5.4478902E-2,-3.4821372E-2,8.668212E-3,2.1344095E-3,-4.704609E-2,-2.3296123E-2,4.3097767E-3],"categories":[],"categories_nodes":[],"categories_segments":[],"categories_sizes":[],"default_left":[0,0,0,0,0,0,0,0,0,0,0,0,0,0,0,0,0,0,0,0,0,0,0,0,0,0,0],"id":48,"left_children":[1,3,5,7,9,11,13,15,17,19,21,23,-1,-1,25,-1,-1,-1,-1,-1,-1,-1,-1,-1,-1,-1,-1],"loss_changes":[7.180886E0,1.1526686E1,1.7768259E0,1.0812526E1,1.181135E1,1.6402721E0,6.6779983E-1,1.5045214E1,6.759126E1,2.4863667E1,2.4450283E1,3.6688616E0,0E0,0E0,1.2500098E0,0E0,0E0,0E0,0E0,0E0,0E0,0E0,0E0,0E0,0E0,0E0,0E0],"parents":[2147483647,0,0,1,1,2,2,3,3,4,4,5,5,6,6,7,7,8,8,9,9,10,10,11,11,14,14],"right_children":[2,4,6,8,10,12,14,16,18,20,22,24,-1,-1,26,-1,-1,-1,-1,-1,-1,-1,-1,-1,-1,-1,-1],"split_conditions":[2.2E1,1.1E1,3E0,9E0,1.7E1,2E0,4E0,5E0,5E0,1.6E1,2E0,2.3E1,-4.1520875E-2,1.4704273E-3,2.3E1,8.034986E-3,-2.0695133E-2,-5.869947E-2,4.6039768E-2,7.487723E-3,5.4478902E-2,-3.4821372E-2,8.668212E-3,2.1344095E-3,-4.704609E-2,-2.3296123E-2,4.3097767E-3],"split_indices":[1,1,0,1,1,0,0,0,0,1,0,1,0,0,1,0,0,0,0,0,0,0,0,0,0,0,0],"split_type":[0,0,0,0,0,0,0,0,0,0,0,0,0,0,0,0,0,0,0,0,0,0,0,0,0,0,0],"sum_hessian":[2.857E3,2.635E3,2.22E2,1.133E3,1.502E3,1.07E2,1.15E2,8.59E2,2.74E2,8.41E2,6.61E2,6.4E1,4.3E1,4.2E1,7.3E1,5.98E2,2.61E2,1.82E2,9.2E1,7.08E2,1.33E2,1.75E2,4.86E2,4.1E1,2.3E1,4.9E1,2.4E1],"tree_param":{"num_deleted":"0","num_feature":"2","num_nodes":"27","size_leaf_vector":"1"}},{"base_weights":[-7.50477E-4,-1.23473845E-1,1.692906E-2,-1.772512E-1,-3.0355716E-2,5.8461435E-2,-7.588251E-2,-1.18589075E-2,-2.1678446E-1,3.4048927E-3,-4.708461E-3,1.088742E-4,2.2207972E-1,-3.4796634E-1,-1.5156277E-2,-4.2230817E-3,-2.5039462E-2,-3.6382757E-3,4.3044505E-3,2.5022998E-3,-7.313012E-2,-7.1568764E-3,3.2779645E-2,-1.3808882E-1,2.0000285E-2,1.7846571E-2,-2.1118885E-2],"categories":[],"categories_nodes":[],"categories_segments":[],"categories_sizes":[],"default_left":[0,0,0,0,0,0,0,0,0,0,0,0,0,0,0,0,0,0,0,0,0,0,0,0,0,0,0],"id":49,"left_children":[1,3,5,7,9,11,13,-1,15,17,-1,19,21,23,25,-1,-1,-1,-1,-1,-1,-1,-1,-1,-1,-1,-1],"loss_changes":[6.203071E0,1.7973719E0,9.637295E0,5.0304747E-1,7.527576E-2,1.648859E1,1.2766718E1,0E0,7.8144073E-1,7.25386E-2,0E0,2.3233688E1,1.4117237E1,8.0083496E1,2.4063972E1,0E0,0E0,0E0,0E0,0E0,0E0,0E0,0E0,0E0,0E0,0E0,0E0],"parents":[2147483647,0,0,1,1,2,2,3,3,4,4,5,5,6,6,8,8,9,9,11,11,12,12,13,13,14,14],"right_children":[2,4,6,8,10,12,14,-1,16,18,-1,20,22,24,26,-1,-1,-1,-1,-1,-1,-1,-1,-1,-1,-1,-1],"split_conditions":[3E0,5E0,1.8E1,2E0,7E0,1.5E1,1.9E1,-1.18589075E-2,1E0,1E0,-4.708461E-3,1.4E1,2E0,3E0,3E0,-4.2230817E-3,-2.5039462E-2,-3.6382757E-3,4.3044505E-3,2.5022998E-3,-7.313012E-2,-7.1568764E-3,3.2779645E-2,-1.3808882E-1,2.0000285E-2,1.7846571E-2,-2.1118885E-2],"split_indices":[1,0,1,0,0,1,1,0,1,1,0,1,0,0,0,0,0,0,0,0,0,0,0,0,0,0,0],"split_type":[0,0,0,0,0,0,0,0,0,0,0,0,0,0,0,0,0,0,0,0,0,0,0,0,0,0,0],"sum_hessian":[2.857E3,3.59E2,2.498E3,2.27E2,1.32E2,1.726E3,7.72E2,9.3E1,1.34E2,4.4E1,8.8E1,1.273E3,4.53E2,1.4E2,6.32E2,2.2E1,1.12E2,2.2E1,2.2E1,1.232E3,4.1E1,1.2E2,3.33E2,4.8E1,9.2E1,3.18E2,3.14E2],"tree_param":{"num_deleted":"0","num_feature":"2","num_nodes":"27","size_leaf_vector":"1"}}]},"name":"gbtree"},"learner_model_param":{"base_score":"[1.3832691E1]","boost_from_average":"1","num_class":"0","num_feature":"2","num_target":"1"},"objective":{"name":"reg:squarederror","reg_loss_param":{"scale_pos_weight":"1"}}},"version":[3,2,0]}